
\data\
ngram 1=683
ngram 2=2934
ngram 3=1065

\1-grams:
-0.7425652	</s>
-99	<s>	-0.6852149
-3.994933	CD	-0.1961628
-3.693903	I	-0.1839045
-3.517812	Mac	-0.274958
-3.517812	Macintosh	-0.1947981
-3.994933	Mediterranean	-0.1096324
-3.693903	OS	-0.1541059
-3.994933	S	-0.1948863
-3.994933	U	-0.1962507
-3.994933	X	-0.1096324
-1.033987	a	-0.4933162
-3.295963	about	-0.4975804
-3.517812	above	-0.3441067
-3.693903	actually	-0.1532335
-3.693903	again	-0.389601
-3.295963	all	-0.1754915
-3.994933	alright	-0.1096324
-2.994933	also	-0.1990491
-3.04069	am	-0.2277047
-2.403868	an	-0.5979735
-1.450865	and	-0.6130179
-3.994933	animal	-0.1096324
-2.517812	another	-0.4113818
-3.994933	any	-0.1962068
-3.091843	anything	-0.3642251
-3.517812	appear	-0.1049402
-3.994933	appeared	-0.1924994
-2.73966	appears	-1.274958
-3.693903	apple	-0.05760731
-3.149835	apples	-0.2013845
-2.463454	are	-0.2228181
-3.693903	armchair	-0.09043939
-3.994933	armchairs	-0.1096324
-3.693903	armrests	-0.09876904
-3.994933	arms	-0.1947981
-3.149835	around	-0.3284577
-3.517812	arrow	-0.2558722
-2.95354	arrows	-0.8480596
-3.994933	artifacts	-0.1541544
-3.295963	at	-0.1249077
-3.994933	audio	-0.195855
-3.994933	automatic	-0.1096324
-2.716179	axe	-0.732792
-3.392873	axes	-0.7510835
-2.915751	back	-0.250554
-3.216781	backgammon	-0.3532705
-3.994933	background	-0.1096324
-3.994933	balconies	-0.1908562
-3.149835	ball	-0.4649257
-3.994933	balls	-0.1916564
-3.994933	band	-0.195987
-3.149835	bar	-0.3477351
-3.295963	barrel	-0.378486
-2.994933	basket	-0.7543949
-3.392873	bath	-0.3235392
-3.149835	bathroom	-0.3556765
-3.04069	bathtub	-0.1859441
-2.65251	be	-0.3465644
-2.880989	bed	-0.5248873
-3.693903	bedroom	-0.389601
-3.994933	beer	-0.19471
-2.764484	behind	-0.8882806
-3.994933	beige	-0.1096324
-3.994933	below	-0.1789026
-3.994933	bible	-0.1908562
-3.149835	big	-0.1764719
-3.693903	bigger	-0.195767
-3.517812	bin	-0.4600955
-3.994933	bird	-0.1806371
-2.672714	black	-0.4700379
-3.216781	blade	-0.1748617
-3.693903	blender	-0.09043939
-2.503571	blue	-0.7376389
-3.149835	board	-0.9480817
-3.994933	body	-0.1817289
-2.463454	book	-0.5603788
-3.517812	bookmark	-0.2693959
-3.994933	books	-0.1817289
-2.95354	boom	-1.150381
-3.994933	border	-0.1905001
-3.994933	both	-0.1905001
-2.994933	bottle	-0.3612862
-2.915751	bottles	-0.6933644
-3.295963	bottom	-0.1743518
-3.693903	bouquet	-0.4704687
-3.04069	bow	-0.7328253
-3.994933	bowl	-0.1096324
-3.392873	bowls	-0.08768339
-2.915751	box	-1.187255
-2.915751	bracelet	-0.8847152
-3.994933	brand	-0.1096324
-3.693903	brass	-0.195811
-3.295963	bridge	-0.1927305
-3.994933	bright	-0.1950185
-3.994933	bronze	-0.195591
-2.532535	brown	-0.2487469
-3.994933	brownish	-0.1960749
-3.994933	bucket	-0.1905001
-3.693903	bunch	-0.4704687
-3.392873	but	-0.1725914
-3.994933	butcher	-0.1951507
-3.295963	butter	-0.5201728
-2.614722	cabinet	-0.9397327
-3.693903	came	-0.195459
-2.262539	can	-0.7043679
-2.994933	candle	-0.3790561
-3.994933	candleholder	-0.1905001
-3.091843	candles	-0.7041712
-3.693903	candlestick	-0.389601
-3.295963	cannot	-0.3686991
-3.994933	cans	-0.1096324
-3.994933	cap	-0.1916564
-3.994933	carvings	-0.1096324
-3.994933	case	-0.1096324
-3.693903	cases	-0.09043939
-3.693903	casket	-0.389601
-3.295963	cassette	-0.6147755
-3.994933	cast	-0.1096324
-3.091843	cd	-0.4114698
-3.693903	center	-0.1095251
-3.994933	central	-0.1962507
-3.994933	ceramic	-0.1096324
-2.332175	chair	-0.6426004
-2.596993	chairs	-0.7083488
-3.994933	chalice	-0.1096324
-3.517812	chandelier	-0.2684165
-3.994933	character	-0.1096324
-3.994933	checkered	-0.1952829
-3.091843	chess	-0.3947217
-3.216781	chessboard	-0.4125365
-3.994933	chin	-0.1961189
-3.994933	circular	-0.1961189
-3.149835	cleaver	-0.9480817
-3.994933	clicked	-0.1759197
-2.994933	clock	-0.4516509
-2.95354	closed	-0.5237882
-3.994933	co	-0.1962507
-3.04069	coffee	-0.8378811
-3.517812	coffeemaker	-0.08976606
-2.764484	coffin	-0.8467734
-2.764484	coin	-0.4969712
-3.295963	color	-0.292207
-3.994933	colored	-0.1096324
-3.693903	colors	-0.389601
-3.693903	column	-0.09178291
-3.994933	columns	-0.1096324
-3.994933	come	-0.1096324
-3.994933	coming	-0.195987
-2.579959	computer	-0.4088118
-3.994933	console	-0.1096324
-3.994933	contains	-0.1957671
-3.994933	cooking	-0.1962068
-3.994933	corners	-0.1096324
-2.65251	couch	-0.439072
-3.392873	couches	-0.2002653
-3.994933	could	-0.1962507
-3.693903	couple	-0.1899654
-3.994933	cover	-0.1096324
-3.994933	covered	-0.1930752
-3.994933	covers	-0.1962507
-3.994933	cross	-0.1789026
-3.994933	crossed	-0.1096324
-3.517812	crown	-0.2693959
-3.392873	cube	-0.3417118
-3.392873	cup	-0.7510835
-3.994933	curly	-0.1096324
-3.994933	curved	-0.1096324
-3.693903	cushion	-0.1094714
-3.994933	cushions	-0.1096324
-3.994933	cylinder	-0.1096324
-3.693903	cylindrical	-0.194357
-3.216781	dagger	-0.1964673
-3.517812	dark	-0.1085044
-3.994933	dead	-0.1961628
-3.994933	decent	-0.1961628
-3.517812	decorated	-0.2711316
-3.994933	decorations	-0.1916564
-3.994933	decorative	-0.1962507
-3.994933	deer	-0.1908562
-3.994933	deers	-0.1806371
-3.994933	den	-0.1905001
-3.994933	describe	-0.1874167
-2.392873	desk	-0.6865065
-3.994933	desktop	-0.1951507
-3.693903	device	-0.389601
-3.693903	dial	-0.103963
-3.994933	diamonds	-0.19471
-3.392873	did	-0.3421417
-3.149835	different	-0.4790137
-3.994933	dishes	-0.1096324
-2.848805	disk	-0.7149205
-3.994933	display	-0.1096324
-2.716179	do	-0.4650254
-3.392873	does	-0.8372622
-3.693903	dog	-0.389601
-3.517812	dogs	-0.5421194
-3.994933	dollar	-0.1096324
-3.216781	done	-0.7584358
-2.43863	door	-0.7618419
-3.091843	doors	-0.536994
-2.880989	down	-0.4706369
-3.392873	downstairs	-0.7510835
-3.216781	drawer	-0.4238382
-3.149835	drawers	-0.9529027
-3.994933	drawn	-0.1962068
-3.994933	dress	-0.1096324
-3.517812	dresser	-0.2684165
-3.994933	drinking	-0.1962507
-3.693903	each	-0.1949745
-3.994933	early	-0.195547
-3.994933	edge	-0.1096324
-2.764484	egyptian	-0.3043139
-3.517812	either	-0.05712327
-3.994933	electronic	-0.1096324
-3.149835	electronics	-0.9531181
-3.295963	else	-0.3087132
-3.994933	emerald	-0.1949304
-3.693903	emeralds	-0.4716249
-3.693903	empty	-0.1801357
-3.517812	end	-0.270915
-3.994933	era	-0.1961628
-3.994933	exact	-0.1961189
-3.994933	expresso	-0.1961189
-3.392873	eyes	-0.2907071
-3.216781	face	-0.4109937
-3.994933	feather	-0.1960749
-3.994933	fell	-0.1957231
-3.994933	fern	-0.1930752
-3.693903	few	-0.195547
-3.994933	figure	-0.1916564
-3.091843	file	-0.9531867
-2.95354	filing	-1.078125
-3.517812	find	-0.05578941
-3.693903	first	-0.1928095
-3.149835	floor	-0.6673065
-3.295963	floppy	-0.6145995
-3.994933	flower	-0.1759197
-2.790813	flowers	-0.7774113
-3.994933	food	-0.1096324
-3.994933	foot	-0.1962507
-3.392873	footstool	-0.3248827
-2.764484	for	-0.2468913
-3.216781	forest	-0.4040947
-2.994933	found	-1.13495
-2.95354	four	-0.7104133
-3.994933	fox	-0.1096324
-3.994933	frame	-0.1806371
-3.295963	from	-0.3101506
-3.517812	front	-0.3400612
-2.994933	fruit	-0.3046302
-3.994933	fruits	-0.1096324
-3.994933	furniture	-0.1096324
-3.994933	futon	-0.1096324
-3.392873	game	-0.09816361
-3.517812	garbage	-0.3611559
-3.517812	gems	-0.4600955
-2.915751	glass	-0.3237253
-3.994933	glock	-0.1096324
-2.547775	go	-0.4330832
-2.95354	going	-0.3151951
-2.517812	gold	-0.3208783
-2.848805	golden	-0.4656197
-3.517812	got	-0.3403844
-3.091843	gray	-0.1761498
-2.716179	green	-0.1940151
-3.994933	guard	-0.1096324
-3.994933	guess	-0.1096324
-2.994933	gun	-0.5902308
-3.517812	guy	-0.1056446
-3.994933	hair	-0.1096324
-3.994933	hallway	-0.1961628
-3.295963	handgun	-0.5228878
-2.994933	handle	-0.3464226
-3.994933	hanging	-0.1916564
-2.035891	has	-0.7298616
-3.216781	hatchet	-0.4035335
-2.818841	have	-0.4358864
-3.693903	head	-0.1095788
-3.994933	headdress	-0.1960309
-3.693903	heavy	-0.389601
-3.091843	helmet	-0.5445707
-3.517812	here	-0.2722128
-3.392873	hidden	-0.3418193
-3.994933	high	-0.1930752
-3.994933	highly	-0.1961628
-3.994933	hilt	-0.1806371
-3.994933	hinges	-0.1096324
-2.994933	holder	-0.1900415
-3.693903	holes	-0.4730437
-3.392873	how	-0.2261472
-3.693903	human	-0.4754275
-1.338835	i	-1.231972
-3.994933	identical	-0.1096324
-3.994933	important	-0.1930752
-2.13161	in	-0.8500859
-3.994933	indistinguishable	-0.1962507
-3.693903	inside	-0.389601
-3.295963	into	-0.4558291
-1.481715	is	-0.5930136
-1.693903	it	-0.8052227
-3.693903	its	-0.1961628
-3.994933	jade	-0.1096324
-3.994933	jar	-0.1905001
-3.994933	jars	-0.1905001
-3.994933	jest	-0.1961189
-3.994933	jug	-0.1945335
-2.95354	just	-0.1875452
-2.790813	key	-0.9596682
-3.149835	keyboard	-0.3154851
-3.091843	kind	-0.948448
-3.295963	kitchen	-0.5197368
-2.579959	knife	-0.6354015
-3.994933	knives	-0.1096324
-3.693903	knob	-0.103963
-3.994933	know	-0.195943
-3.392873	label	-0.7510835
-3.994933	laminated	-0.1096324
-3.04069	lamp	-0.4159345
-3.994933	land	-0.1096324
-3.295963	large	-0.1933849
-3.994933	larger	-0.1960749
-3.517812	larva	-0.09010286
-3.994933	last	-0.1962507
-3.994933	lay	-0.1957231
-3.994933	lead	-0.1950185
-3.693903	leading	-0.191212
-3.693903	leads	-0.4724679
-3.994933	leave	-0.1096324
-3.994933	leaving	-0.1789026
-3.994933	ledges	-0.1541544
-3.994933	left	-0.1096324
-3.693903	legs	-0.1944011
-3.994933	let	-0.1961189
-3.693903	letter	-0.4756916
-3.693903	light	-0.1899654
-3.091843	lighthouse	-0.39223
-2.382149	like	-0.5293279
-3.693903	liquor	-0.389601
-3.392873	little	-0.106834
-3.994933	locks	-0.1096324
-3.04069	long	-0.3983454
-3.994933	longer	-0.1960749
-3.091843	look	-0.1565943
-2.716179	looking	-0.422081
-2.463454	looks	-0.8508078
-3.216781	lot	-0.5053593
-3.994933	lots	-0.1905001
-3.693903	loveseat	-0.1029837
-3.392873	machine	-0.7510835
-3.994933	macintosh	-0.1956791
-3.149835	made	-0.5646746
-3.216781	maker	-0.2082713
-3.517812	man	-0.1867435
-3.994933	marker	-0.1096324
-2.848805	mask	-0.5293601
-3.216781	maybe	-0.4032073
-3.392873	me	-0.2919241
-3.994933	mean	-0.1961628
-3.517812	meat	-0.54645
-3.149835	metal	-0.2230426
-3.693903	middle	-0.1746283
-3.994933	midrange	-0.1096324
-3.994933	might	-0.1953269
-3.994933	millimeter	-0.19471
-3.994933	modern	-0.195987
-3.392873	monitor	-0.3413352
-3.517812	more	-0.1089345
-3.994933	motifs	-0.1096324
-3.994933	mounting	-0.1908562
-3.149835	mouse	-0.3331285
-3.994933	mouth	-0.1096324
-2.579959	move	-0.5625867
-3.517812	moved	-0.09401293
-3.994933	moves	-0.1759197
-3.994933	movie	-0.1096324
-3.693903	moving	-0.1749515
-3.693903	much	-0.1095788
-2.693903	mummy	-0.7325664
-3.693903	music	-0.4758236
-3.994933	must	-0.1953269
-3.994933	name	-0.195899
-3.994933	nameplates	-0.1916564
-3.994933	near	-0.1789026
-3.693903	need	-0.4724679
-3.994933	neither	-0.1905001
-3.994933	net	-0.1096324
-3.994933	new	-0.1930752
-2.848805	next	-0.8557053
-3.517812	nine	-0.1960309
-2.463454	no	-1.008114
-3.994933	none	-0.1905001
-2.95354	not	-0.4083769
-3.994933	nothing	-0.1096324
-3.091843	now	-0.4001362
-2.672714	object	-0.7305606
-3.216781	objects	-0.2369202
-3.994933	octopus	-0.1096324
-1.877661	of	-0.4363027
-3.517812	office	-0.1871924
-2.332175	ok	-1.048656
-3.517812	old	-0.4600955
-1.973743	on	-1.252326
-1.845714	one	-0.6794121
-2.596993	open	-0.4096223
-3.517812	opened	-0.07688616
-3.693903	opening	-0.1349504
-2.43863	or	-0.2171994
-2.790813	orange	-0.2657533
-3.091843	oranges	-0.7074338
-3.994933	original	-0.195459
-2.579959	other	-0.2128898
-3.517812	ottoman	-0.2558722
-3.149835	out	-0.5460069
-3.091843	oven	-0.6883871
-3.693903	over	-0.4673852
-3.994933	pad	-0.1961628
-3.693903	paddle	-0.389601
-3.295963	paddles	-0.2971801
-3.994933	page	-0.1962507
-3.994933	pages	-0.1908562
-3.04069	painting	-0.3022632
-3.994933	paintings	-0.1916564
-3.994933	pan	-0.1096324
-3.994933	panel	-0.1930752
-3.392873	pans	-0.7510835
-3.216781	paper	-0.4166967
-3.392873	part	-0.2752864
-3.994933	parts	-0.1905001
-3.994933	passageways	-0.1096324
-3.693903	path	-0.109203
-3.994933	peacock	-0.1962507
-3.295963	peanut	-0.6149953
-3.994933	pedestal	-0.1908562
-3.994933	people	-0.1806371
-3.517812	person	-0.1960749
-3.517812	pharaoh	-0.2740448
-2.73966	pick	-1.048422
-3.994933	picked	-0.1874167
-2.463454	picture	-0.7780156
-2.994933	pictures	-0.8009175
-3.392873	piece	-0.3356475
-3.392873	pieces	-0.2145886
-3.517812	pillar	-0.274797
-3.295963	pillars	-0.5201728
-3.392873	pillow	-0.2177816
-3.693903	pillows	-0.389601
-2.73966	ping	-1.277962
-3.693903	pink	-0.1076969
-3.994933	pipes	-0.1916564
-3.994933	pistol	-0.1930752
-2.994933	plant	-0.3057212
-3.392873	plants	-0.3370628
-3.994933	plastic	-0.1874167
-3.04069	plates	-0.4126639
-3.994933	plating	-0.1916564
-2.994933	player	-0.5802504
-3.216781	plunger	-0.372511
-2.73966	pong	-0.7366683
-3.693903	pop	-0.1090956
-3.693903	porcelain	-0.09876904
-2.915751	pot	-0.4173618
-3.994933	potentially	-0.1962507
-2.790813	pots	-0.4633924
-3.693903	potted	-0.4758236
-3.994933	pottery	-0.1916564
-3.994933	pretty	-0.1962507
-3.994933	print	-0.1916564
-3.693903	pumpkin	-0.05760731
-3.149835	purple	-0.3811996
-3.994933	put	-0.1957671
-3.994933	puzzle	-0.1096324
-3.994933	quarter	-0.1096324
-3.517812	rack	-0.2729142
-3.216781	radio	-0.3705879
-3.994933	raffle	-0.195855
-3.994933	range	-0.1096324
-3.693903	really	-0.1956791
-3.994933	reappeared	-0.1957671
-3.994933	rectangular	-0.1096324
-2.633205	red	-0.3080671
-3.994933	relaxing	-0.1096324
-3.693903	repeat	-0.1074814
-3.994933	rest	-0.1096324
-3.994933	returned	-0.1961189
-3.994933	ribbon	-0.1096324
-3.149835	right	-0.3945455
-3.994933	rim	-0.1806371
-2.503571	ring	-0.6488475
-3.994933	road	-0.1096324
-3.994933	roll	-0.1096324
-3.994933	rolls	-0.1905001
-3.994933	rom	-0.19471
-2.13161	room	-0.8214021
-3.693903	rooms	-0.389601
-3.517812	roses	-0.2693959
-3.693903	round	-0.1952388
-3.517812	rusty	-0.2742061
-3.693903	safe	-0.1049944
-3.392873	same	-0.08513688
-3.517812	sarcophagus	-0.08530709
-3.994933	sat	-0.1930752
-3.994933	screen	-0.1905001
-3.994933	scrolls	-0.1916564
-3.994933	sculpture	-0.1096324
-3.994933	seal	-0.1096324
-3.994933	sealed	-0.1096324
-3.994933	searching	-0.195547
-3.517812	seat	-0.267435
-3.693903	seated	-0.1085582
-3.994933	second	-0.195415
-1.554024	see	-1.036764
-3.994933	seems	-0.1944894
-3.149835	set	-0.3918234
-2.915751	several	-0.1793384
-3.693903	shall	-0.4558882
-3.216781	shampoo	-0.7584358
-3.392873	sharp	-0.3060721
-3.295963	shelf	-0.2769678
-3.994933	shelves	-0.1096324
-3.994933	shelving	-0.1962068
-3.091843	shield	-0.2909513
-2.915751	shields	-0.6846915
-3.04069	short	-0.2894776
-3.994933	shorter	-0.1960749
-2.270657	should	-1.596996
-3.392873	side	-0.09111169
-2.489783	silver	-0.423366
-3.994933	similar	-0.1924994
-3.994933	simple	-0.1096324
-3.994933	single	-0.1961628
-2.73966	sink	-0.5211579
-3.994933	sit	-0.1886259
-3.693903	sits	-0.1915675
-2.716179	sitting	-0.9469516
-3.994933	six	-0.1759197
-3.517812	size	-0.3556657
-3.994933	slots	-0.1096324
-2.579959	small	-0.2039661
-3.693903	smaller	-0.1020021
-3.295963	snake	-0.2757238
-3.994933	so	-0.1759197
-3.216781	soap	-0.4239993
-3.693903	soda	-0.106726
-3.392873	sofa	-0.1552369
-2.34172	some	-0.3400583
-3.04069	something	-0.2004138
-3.994933	somewhere	-0.1960749
-3.392873	sony	-0.2267924
-3.091843	sort	-0.3830204
-3.693903	speaker	-0.389601
-3.149835	speakers	-0.9355375
-3.994933	sphinx	-0.1096324
-3.994933	spikes	-0.1962068
-3.295963	square	-0.07520545
-2.716179	stairs	-0.5836998
-3.295963	stairway	-0.2796917
-3.994933	stand	-0.1096324
-3.216781	standing	-0.4363908
-3.994933	star	-0.1096324
-3.517812	started	-0.2558722
-2.693903	statue	-0.436773
-3.693903	statues	-0.08462576
-3.994933	stay	-0.1930752
-2.880989	stereo	-1.22164
-3.994933	stick	-0.195987
-3.693903	sticking	-0.4759555
-3.693903	still	-0.195591
-3.517812	stone	-0.09038332
-3.693903	stones	-0.09876904
-2.95354	stool	-1.131832
-3.994933	stools	-0.19471
-3.693903	storage	-0.1095788
-3.04069	stove	-0.394842
-3.392873	strange	-0.2259858
-3.994933	stuff	-0.1916564
-3.994933	sugar	-0.1962507
-3.994933	surrounded	-0.1962068
-3.994933	suspiciously	-0.1944894
-2.95354	sword	-0.1992231
-2.915751	swords	-0.6829473
-3.994933	symbol	-0.1096324
-3.517812	symbols	-0.2693959
-3.693903	system	-0.1076969
-2.108442	table	-0.9576249
-3.693903	tables	-0.389601
-2.764484	take	-0.796214
-3.994933	taken	-0.1541544
-3.994933	taking	-0.1789026
-3.693903	tall	-0.194357
-3.216781	tan	-0.3476511
-3.994933	tea	-0.1096324
-3.994933	teapot	-0.1096324
-3.693903	teapots	-0.4716249
-3.994933	tennis	-0.1806371
-3.994933	text	-0.1096324
-3.295963	than	-0.597823
-3.994933	thank	-0.1960749
-2.392873	that	-0.5089598
-1.406101	the	-0.3608354
-2.915751	them	-0.247527
-3.392873	then	-0.2140357
-1.756887	there	-1.391541
-3.994933	these	-0.1960749
-2.880989	they	-0.8163185
-2.994933	thing	-0.3004382
-3.994933	things	-0.1962507
-3.216781	think	-0.5170737
-2.313692	this	-0.450981
-2.716179	three	-0.2941802
-3.091843	through	-0.4733126
-3.994933	time	-0.1096324
-2.060434	to	-0.559209
-2.790813	toilet	-0.2714615
-3.693903	tomb	-0.1076969
-3.994933	too	-0.1962068
-2.818841	took	-1.300801
-2.672714	top	-0.6636289
-3.994933	towel	-0.1096324
-3.392873	towels	-0.2907071
-3.994933	training	-0.1930752
-2.994933	trash	-0.5925851
-3.693903	treasure	-0.1056987
-3.693903	tried	-0.4724679
-3.517812	trophy	-0.4600955
-2.764484	try	-1.421617
-3.392873	trying	-0.4711361
-3.994933	tub	-0.1806371
-3.994933	turned	-0.1962507
-2.108442	two	-0.3325892
-3.295963	type	-0.6056808
-2.880989	under	-0.5990174
-3.517812	underneath	-0.3350909
-3.994933	unit	-0.1096324
-2.532535	up	-0.7938441
-3.091843	upstairs	-0.6904763
-3.693903	useful	-0.4730437
-3.392873	v	-0.8369981
-3.994933	valuable	-0.1096324
-3.994933	vanity	-0.1908562
-2.633205	vase	-0.7100803
-3.295963	vases	-0.5191913
-3.392873	vendetta	-0.2254472
-3.392873	very	-0.3127786
-3.994933	viking	-0.195943
-3.994933	volume	-0.1962068
-3.994933	wagon	-0.1962507
-3.994933	walk	-0.1096324
-3.994933	walked	-0.1924994
-3.392873	walking	-0.1085582
-2.764484	wall	-0.7081578
-3.994933	walls	-0.1806371
-3.693903	want	-0.192322
-2.95354	was	-0.1709395
-3.994933	washing	-0.1961189
-3.295963	waste	-0.6147755
-3.392873	wastebasket	-0.7510835
-3.994933	wastepaper	-0.195855
-3.693903	way	-0.1049944
-3.994933	weapons	-0.1096324
-3.693903	weird	-0.108612
-3.392873	went	-0.3119404
-3.994933	were	-0.1096324
-2.672714	what	-0.3762525
-3.994933	wheel	-0.1096324
-2.994933	where	-0.2944253
-2.716179	which	-0.5673205
-2.517812	white	-0.3965974
-3.693903	will	-0.1946658
-2.579959	wine	-0.5979235
-3.295963	wings	-0.1914707
-1.905028	with	-0.5382434
-2.848805	wolf	-0.2788997
-2.915751	wood	-0.2160629
-2.403868	wooden	-0.4489453
-3.994933	woods	-0.1096324
-3.693903	would	-0.1951067
-3.994933	writing	-0.1916564
-3.216781	yeah	-0.3974532
-3.149835	yellow	-0.1524003
-1.867828	yes	-1.435274
-3.295963	you	-0.1959457
-3.994933	zombie	-0.1806371

\2-grams:
-3.127858	<s> I
-0.9995145	<s> a	0.07777365
-3.127858	<s> about	0.05082209
-3.6917	<s> actually
-3.6917	<s> alright
-2.210975	<s> an	0.05349112
-1.045542	<s> and	-0.006218553
-2.474216	<s> another
-3.6917	<s> anything
-3.127858	<s> appears	1.085733
-3.6917	<s> apples
-3.127858	<s> are	-0.1469965
-2.718492	<s> arrows	0.4219463
-3.6917	<s> artifacts
-3.6917	<s> axe
-3.127858	<s> axes	0.6447246
-3.6917	<s> back
-2.920303	<s> backgammon	-0.009715922
-3.6917	<s> balls
-3.6917	<s> bar
-3.6917	<s> bathtub
-3.6917	<s> bedroom
-3.6917	<s> beer
-2.718492	<s> behind	0.3158457
-3.127858	<s> big
-2.920303	<s> black	-0.04734965
-2.674038	<s> book	0.06708646
-3.6917	<s> boom
-3.6917	<s> both
-3.6917	<s> bottles
-3.6917	<s> bracelet
-3.6917	<s> brass
-3.6917	<s> bright
-2.674038	<s> brown	-0.03386338
-3.6917	<s> brownish
-3.6917	<s> bunch
-3.127858	<s> but
-3.127858	<s> cabinet	0.4882201
-1.973614	<s> can	-0.5721136
-3.6917	<s> candle
-3.127858	<s> candles
-3.6917	<s> casket
-3.6917	<s> cd
-2.718492	<s> chair	-0.07311273
-3.6917	<s> chairs
-3.6917	<s> chandelier
-3.6917	<s> character
-3.6917	<s> chess
-3.6917	<s> chin
-3.6917	<s> clock
-2.920303	<s> coffee	0.2836436
-3.6917	<s> coffeemaker
-2.920303	<s> coffin	0.5096512
-3.6917	<s> colored
-3.6917	<s> computer
-3.6917	<s> couch
-3.6917	<s> covers
-3.6917	<s> cross
-3.127858	<s> cylindrical
-3.6917	<s> dark
-3.6917	<s> desk
-2.718492	<s> do	0.1009089
-2.474216	<s> done	0.3505903
-3.6917	<s> drawer
-3.6917	<s> drawers
-3.6917	<s> dresser
-3.6917	<s> edge
-3.127858	<s> egyptian
-3.127858	<s> electronics
-3.6917	<s> file
-3.6917	<s> filing
-2.920303	<s> flowers
-3.6917	<s> food
-3.6917	<s> for
-2.674038	<s> four	0.1090606
-3.127858	<s> fruit
-3.6917	<s> glass
-3.6917	<s> go
-2.920303	<s> going	-0.0243791
-3.6917	<s> gold
-3.6917	<s> golden
-3.127858	<s> gray
-3.6917	<s> green
-3.6917	<s> guy
-3.6917	<s> hair
-3.127858	<s> handgun	0.3069663
-2.491453	<s> has	0.3279073
-3.127858	<s> hatchet
-3.6917	<s> here
-2.920303	<s> hidden	0.1409763
-3.6917	<s> holes
-2.718492	<s> how	0.09000239
-0.7899695	<s> i	-0.2889919
-2.349277	<s> in	0.2086573
-1.909945	<s> is	-0.06500334
-1.407269	<s> it	0.1086665
-3.6917	<s> just
-3.127858	<s> kind	0.7612214
-3.6917	<s> label
-3.6917	<s> laminated
-3.6917	<s> lamp
-3.6917	<s> large
-3.127858	<s> larva
-3.6917	<s> last
-2.920303	<s> like	0.2899262
-3.6917	<s> little
-2.349277	<s> looking	0.08552454
-2.491453	<s> looks	0.2488989
-3.6917	<s> made
-3.6917	<s> mask
-3.127858	<s> maybe
-3.6917	<s> metal
-3.6917	<s> motifs
-3.6917	<s> mouse
-3.127858	<s> moving
-3.127858	<s> mummy
-3.6917	<s> near
-3.6917	<s> neither
-3.6917	<s> nine
-1.747218	<s> no	0.1782278
-3.6917	<s> none
-3.6917	<s> nothing
-2.920303	<s> now	-0.03964234
-3.6917	<s> object
-2.474216	<s> of	0.01838155
-1.58961	<s> ok	0.2638993
-2.10624	<s> on	0.1058922
-1.504179	<s> one	-0.04635864
-3.6917	<s> opened
-3.6917	<s> opening
-2.173186	<s> or	0.1392848
-3.127858	<s> orange
-3.6917	<s> pans
-3.6917	<s> peacock
-3.6917	<s> peanut
-3.6917	<s> pick
-2.718492	<s> picture
-3.6917	<s> pictures
-3.6917	<s> pillars
-3.6917	<s> pillow
-3.127858	<s> ping	1.085733
-2.718492	<s> plates
-3.6917	<s> pot
-3.127858	<s> pots	0.001075879
-3.6917	<s> pretty
-3.127858	<s> radio
-3.6917	<s> really
-3.6917	<s> repeat
-3.6917	<s> rolls
-3.6917	<s> rusty
-3.6917	<s> screen
-2.920303	<s> see	0.3444478
-3.6917	<s> seems
-3.6917	<s> set
-2.718492	<s> several	-0.03477535
-3.6917	<s> shall
-3.6917	<s> shelf
-3.6917	<s> shield
-2.920303	<s> shields	0.3583836
-3.6917	<s> short
-1.672584	<s> should	0.1271058
-2.474216	<s> silver	0.06961522
-3.127858	<s> sitting	0.13149
-2.674038	<s> small	-0.006060533
-3.6917	<s> soap
-2.298125	<s> some	-0.000893414
-2.920303	<s> something
-3.127858	<s> sony
-3.6917	<s> sort
-3.6917	<s> speakers
-3.6917	<s> square
-2.674038	<s> stairs	0.2724614
-3.6917	<s> standing
-3.127858	<s> statue
-3.6917	<s> stereo
-3.6917	<s> stick
-3.6917	<s> stool
-3.6917	<s> stove
-3.6917	<s> sugar
-2.920303	<s> swords	0.3583836
-3.6917	<s> symbols
-3.6917	<s> system
-2.718492	<s> table
-3.6917	<s> taking
-3.6917	<s> tan
-3.6917	<s> thank
-2.491453	<s> that	0.05227344
-1.184182	<s> the	0.04716152
-3.6917	<s> then
-1.19167	<s> there	-0.02877092
-3.6917	<s> these
-2.298125	<s> they	0.4431148
-3.6917	<s> things
-2.138424	<s> this	0.1736494
-2.920303	<s> three	-0.06663171
-3.6917	<s> to
-3.6917	<s> toilet
-3.6917	<s> took
-3.6917	<s> top
-3.127858	<s> towels
-3.6917	<s> trash
-2.920303	<s> try	1.111711
-2.718492	<s> trying	0.2832421
-2.10624	<s> two	-0.03469624
-3.6917	<s> under
-3.6917	<s> vases
-2.920303	<s> walking
-3.127858	<s> waste	0.4221939
-2.173186	<s> what	0.008272953
-2.920303	<s> where
-1.973614	<s> which	0.1605901
-2.474216	<s> white	0.07937506
-3.127858	<s> wine
-1.854427	<s> with	-0.03672445
-3.6917	<s> wood
-2.920303	<s> wooden
-3.127858	<s> would
-2.474216	<s> yeah	0.2222771
-3.6917	<s> yellow
-1.145158	<s> yes	0.4711299
-0.4393327	CD Mac
-0.7403627	I see
-0.7403627	I tried
-0.916454	Mac </s>
-0.3526122	Mac OS
-0.916454	Macintosh CD
-0.916454	Macintosh computer
-0.916454	Macintosh mouse
-0.4393327	Mediterranean </s>
-0.7403627	OS X
-0.7403627	OS a
-0.4393327	S silver
-0.4393327	U S
-0.4393327	X </s>
-1.175616	a </s>
-3.400279	a Mac
-2.628882	a Macintosh
-3.400279	a U
-2.200032	a a
-3.400279	a another
-3.400279	a armchair
-2.628882	a backgammon	0.07374408
-2.836437	a ball
-3.400279	a band
-2.427071	a bar	0.2051971
-2.427071	a barrel	0.3241522
-3.400279	a basket
-2.427071	a bath	0.198002
-2.427071	a bathroom	0.2523531
-2.427071	a bathtub	0.1513052
-1.919554	a bed	0.1625894
-3.400279	a bible
-2.628882	a big
-3.400279	a bird
-2.200032	a black	0.09915261
-2.836437	a blender
-1.814818	a blue	0.2215074
-3.400279	a board
-2.006704	a book	-0.07021168
-3.400279	a bookmark
-2.057856	a boom	0.6039107
-3.400279	a border
-2.628882	a bottle	0.01324162
-2.836437	a bouquet	0.2832421
-2.057856	a bow	0.4526097
-2.427071	a bracelet	0.6416993
-3.400279	a brass
-2.427071	a bridge	0.04866824
-3.400279	a bronze
-2.182795	a brown
-3.400279	a bucket
-3.400279	a bunch
-2.836437	a cabinet
-2.057856	a can	-0.01144068
-2.182795	a candle	0.09564339
-3.400279	a candleholder
-3.400279	a candlestick
-3.400279	a cap
-3.400279	a casket
-3.400279	a cassette
-3.400279	a cast
-2.182795	a cd	0.2368157
-3.400279	a center
-3.400279	a central
-1.638727	a chair	-0.04285651
-3.400279	a chandelier
-3.400279	a checkered
-2.628882	a chess	0.1233745
-2.382617	a chessboard	0.1329701
-2.836437	a cleaver	0.6520769
-2.057856	a clock	0.3122248
-3.400279	a co
-2.427071	a coffee	0.3406693
-2.006704	a coffin	0.355698
-1.960946	a coin	0.269683
-3.400279	a color
-3.400279	a column
-1.756826	a computer	0.01590651
-3.400279	a cooking
-2.057856	a couch	0.2898608
-2.836437	a couple
-2.836437	a crown
-2.836437	a cube	0.1414329
-3.400279	a curved
-3.400279	a cushion
-2.382617	a dagger	0.08696556
-3.400279	a dark
-3.400279	a dead
-3.400279	a decent
-3.400279	a decorative
-3.400279	a den
-1.618523	a desk	0.2626625
-3.400279	a desktop
-2.836437	a dial
-2.427071	a different	-0.02734509
-2.182795	a disk	0.3593706
-3.400279	a display
-3.400279	a dog
-1.919554	a door	0.02627528
-2.836437	a drawer	0.2402068
-2.836437	a dresser	0.06190796
-3.400279	a egyptian
-2.427071	a face	0.2298801
-3.400279	a fern
-2.836437	a few
-2.382617	a file	0.5389161
-2.057856	a filing	0.4597348
-2.427071	a floppy	0.2967986
-3.400279	a flower
-3.400279	a flowers
-3.400279	a foot
-2.836437	a footstool	0.1414329
-2.628882	a forest
-3.400279	a fruit
-3.400279	a futon
-2.628882	a game
-3.400279	a garbage
-2.427071	a glass	-0.03396517
-3.400279	a glock
-2.006704	a gold	-0.03506325
-2.057856	a golden	0.1801492
-2.628882	a gray
-2.200032	a green
-3.400279	a guard
-2.427071	a gun	-0.03142404
-2.836437	a handgun
-2.427071	a hatchet	0.04791573
-3.400279	a headdress
-2.182795	a helmet	0.2415662
-3.400279	a holder
-2.836437	a i	0.1752754
-3.400279	a jade
-3.400279	a jar
-3.400279	a jug
-2.182795	a key	0.5905467
-2.382617	a keyboard	0.2661939
-2.836437	a kitchen
-2.006704	a knife	0.3687123
-3.400279	a knob
-2.057856	a lamp	0.007091403
-2.427071	a large
-2.836437	a letter	0.2832421
-3.400279	a light
-2.057856	a lighthouse	0.1641529
-2.836437	a little
-2.427071	a long	-0.01631295
-2.182795	a lot	0.1206846
-3.400279	a lots
-3.400279	a macintosh
-2.628882	a man
-2.200032	a mask	0.1163325
-3.400279	a meat
-2.836437	a metal
-2.628882	a monitor	0.2157163
-2.427071	a mouse	0.1546193
-3.400279	a mouth
-3.400279	a movie
-2.057856	a mummy	0.08539671
-2.836437	a music	0.2832421
-3.400279	a net
-3.400279	a new
-2.836437	a one	0.06410341
-3.400279	a oven
-3.400279	a paddle
-2.200032	a painting	0.2365621
-3.400279	a pan
-3.400279	a path
-2.628882	a pharaoh	0.1361914
-1.814818	a picture	0.2241101
-2.836437	a piece	0.1414329
-3.400279	a pillar
-2.628882	a pillow
-1.784855	a ping	0.3863059
-3.400279	a pink
-3.400279	a pistol
-2.382617	a plant	0.1012031
-2.427071	a plunger	0.2967759
-3.400279	a pop
-1.960946	a pot	0.3079345
-2.836437	a potted	0.2832421
-2.836437	a pumpkin
-2.628882	a purple	-0.0342871
-3.400279	a puzzle
-3.400279	a quarter
-3.400279	a rack
-2.427071	a radio	0.2298801
-3.400279	a raffle
-1.960946	a red	0.1730391
-1.960946	a ring	0.3183806
-3.400279	a road
-1.960946	a room	-0.2236792
-3.400279	a round
-2.836437	a rusty	0.06190796
-3.400279	a sculpture
-3.400279	a sealed
-3.400279	a seated
-3.400279	a set
-3.400279	a shampoo
-2.836437	a shelf
-2.427071	a short	0.03256041
-2.836437	a silver	-0.1745564
-3.400279	a single
-1.881765	a sink	0.1135519
-1.784855	a small	0.04845889
-2.628882	a snake
-3.400279	a soap
-3.400279	a soda
-2.836437	a sofa	-0.01714452
-2.836437	a sony
-3.400279	a square
-3.400279	a stairs
-2.628882	a stairway	0.1251055
-3.400279	a star
-2.182795	a statue	0.2352582
-2.200032	a stereo	0.7344533
-2.382617	a stool	0.8080307
-3.400279	a storage
-2.200032	a stove	0.06508335
-3.400279	a strange
-2.628882	a sword	0.06455684
-1.599218	a table	-0.08881032
-3.400279	a tall
-3.400279	a tan
-3.400279	a teapot
-3.400279	a this
-3.400279	a three
-1.847003	a toilet	-0.001718551
-3.400279	a tomb
-3.400279	a towel
-2.427071	a trash	0.3443627
-3.400279	a trophy
-3.400279	a tub
-2.382617	a two
-3.400279	a v
-3.400279	a vanity
-1.960946	a vase	0.2722597
-3.400279	a volume
-3.400279	a wagon
-3.400279	a washing
-2.836437	a waste	0.4221939
-2.628882	a wastebasket	0.644268
-3.400279	a wastepaper
-2.836437	a weird
-2.006704	a white	0.07201757
-2.382617	a wine	-0.02983589
-1.919554	a wolf	0.0584573
-2.427071	a wood	-0.05078858
-1.580735	a wooden	0.2076597
-2.836437	a yellow
-3.400279	a zombie
-0.3669056	about the	-0.1172442
-0.5744609	about this	-0.003141552
-0.916454	above all
-0.3526122	above the
-0.7403627	actually a
-0.7403627	actually three
-0.1765209	again </s>
-1.138303	all </s>
-0.5744609	all in	-0.1078495
-1.138303	all sharp
-1.138303	all the
-0.4393327	alright </s>
-1.439333	also </s>
-1.439333	also a
-1.439333	also appear
-1.439333	also appears
-1.439333	also orange
-0.4216708	also see	0.04785904
-1.393575	am </s>
-0.8297334	am i	-0.1917422
-1.393575	am in
-0.6221781	am looking	-0.02219053
-1.393575	am now
-1.393575	am searching
-2.030397	an animal
-1.466556	an apple
-2.030397	an armchair
-2.030397	an audio
-0.4771213	an axe	0.157939
-1.259	an egyptian	0.07031854
-2.030397	an empty
-2.030397	an expresso
-2.030397	an indistinguishable
-2.030397	an octopus
-1.466556	an office
-1.466556	an open	-0.1216771
-1.057189	an orange	-0.02326202
-2.030397	an ottoman
-1.012735	an oven	0.4965438
-1.243038	and </s>
-0.4796101	and a	0.05491749
-2.983401	and above
-1.965739	and an	-0.05727078
-2.983401	and and
-2.419559	and another
-2.983401	and apples
-2.419559	and arrow	0.06190796
-2.983401	and automatic
-2.983401	and bed
-2.010192	and black	0.009676039
-2.212004	and blue	0.03020129
-2.419559	and bottom
-2.983401	and can
-2.212004	and candles	0.4085823
-2.983401	and chair
-2.983401	and chairs
-2.983401	and closed
-2.983401	and doors
-2.983401	and empty
-2.983401	and flowers
-2.983401	and four
-2.212004	and gold	-0.1007721
-2.983401	and gray
-1.640978	and has	0.4039501
-1.18234	and i	-0.1532303
-2.983401	and in
-1.430125	and it	-0.2488752
-2.983401	and its
-2.983401	and looks
-2.983401	and nine
-2.983401	and on
-1.18234	and one	-0.008668691
-2.983401	and orange
-2.419559	and oranges	0.4090389
-2.419559	and pans	0.6447246
-2.983401	and peanut
-2.983401	and picture
-2.983401	and pictures
-2.419559	and pots
-2.983401	and range
-2.212004	and several
-2.983401	and short
-2.419559	and silver	-0.06808238
-1.502675	and some
-2.419559	and square
-2.419559	and stairs
-2.983401	and swords
-2.983401	and tables
-1.367977	and the	-0.248358
-2.212004	and then	0.05713888
-1.288796	and there	-0.2107041
-2.419559	and they	0.2219522
-2.419559	and this
-2.419559	and three
-1.39794	and two	-0.0006450415
-2.983401	and waste
-2.983401	and what
-2.419559	and where	-0.1309393
-1.765917	and white	0.04864605
-2.983401	and wine
-2.983401	and with
-2.983401	and wood
-2.983401	and wooden
-0.4393327	animal </s>
-1.916454	another bow
-1.352612	another bracelet	0.5851302
-1.352612	another door
-1.916454	another game
-1.916454	another mummy
-1.916454	another object
-1.352612	another one
-1.916454	another picture
-1.916454	another red
-1.352612	another ring	0.2569479
-0.5740313	another room	0.2543916
-1.916454	another set
-1.916454	another stairway
-1.916454	another statue
-1.352612	another table
-1.916454	another vase
-1.916454	another way
-1.916454	another what
-0.4393327	any treasure
-0.5710256	anything else
-1.342423	anything important
-1.342423	anything in
-1.342423	anything more
-0.7785809	anything useful	0.2832421
-0.916454	appear </s>
-0.916454	appear identical
-0.916454	appear to
-0.4393327	appeared to
-0.0234811	appears to	-0.6812409
-0.7403627	apple </s>
-0.7403627	apple a
-1.284431	apples </s>
-0.5130336	apples and	-0.1170817
-1.284431	apples are
-1.284431	apples oranges
-1.284431	apples two
-1.199414	are </s>
-1.970812	are all
-1.970812	are also
-1.970812	are apples
-1.970812	are crossed
-1.970812	are curly
-1.970812	are different
-1.970812	are going
-1.970812	are in
-1.970812	are made
-1.970812	are more
-1.970812	are on
-1.40697	are orange
-1.970812	are parts
-1.970812	are red
-1.970812	are right
-1.970812	are shields
-1.970812	are some
-1.970812	are still
-0.9976033	are the
-1.199414	are three
-0.9531497	are two
-0.7403627	armchair </s>
-0.7403627	armchair and
-0.4393327	armchairs </s>
-0.7403627	armrests </s>
-0.7403627	armrests it
-0.4393327	arms are
-0.3112224	around </s>
-1.284431	around for
-1.284431	around it
-1.284431	around the
-0.3526122	arrow </s>
-0.916454	arrow and
-0.08715018	arrows </s>
-1.480725	arrows are
-1.480725	arrows safe
-0.4393327	artifacts a
-1.138303	at </s>
-0.5744609	at a
-1.138303	at each
-1.138303	at the
-0.4393327	audio player
-0.4393327	automatic </s>
-0.1326256	axe </s>
-1.718086	axe and
-1.154245	axe is
-1.718086	axe that
-1.718086	axe yes
-0.06818437	axes </s>
-0.9546722	back </s>
-0.9546722	back down
-1.518514	back from
-1.518514	back in
-1.518514	back into
-0.7471168	back to	-0.02308834
-1.518514	back up
-1.518514	back where
-0.6536422	backgammon </s>
-0.4460868	backgammon board	0.6516203
-1.217484	backgammon table
-0.4393327	background </s>
-0.4393327	balconies with
-0.2667688	ball </s>
-0.720589	ball and
-0.4393327	balls on
-0.4393327	band around
-0.3112224	bar </s>
-1.284431	bar of
-1.284431	bar stool
-1.284431	bar with
-0.3669056	barrel </s>
-0.5744609	barrel a
-0.09691001	basket </s>
-1.439333	basket a
-1.439333	basket or
-0.2699956	bath </s>
-1.041393	bath and
-0.2667688	bathroom </s>
-1.284431	bathroom down
-1.284431	bathroom with
-0.3759133	bathtub </s>
-1.393575	bathtub a
-1.393575	bathtub and
-1.393575	bathtub is
-1.393575	bathtub there
-0.5815083	be a	-0.04315744
-1.010358	be an
-1.781755	be another
-1.781755	be deer
-1.781755	be gold
-1.010358	be made	0.1447496
-1.781755	be on
-1.781755	be red
-1.781755	be some
-1.781755	be too
-1.781755	be very
-1.781755	be wooden
-0.1597008	bed </s>
-1.553276	bed a
-1.553276	bed and
-1.553276	bed chairs
-1.553276	bed is
-0.1765209	bedroom </s>
-0.4393327	beer or
-1.669782	behind a
-0.6965733	behind it	-0.1142964
-0.1890562	behind the	-0.166663
-1.669782	behind this
-0.4393327	beige </s>
-0.4393327	below the
-0.4393327	bible with
-1.284431	big and
-1.284431	big blue
-1.284431	big candle
-1.284431	big orange
-1.284431	big red
-1.284431	big sharp
-1.284431	big yellow
-0.7403627	bigger made
-0.7403627	bigger than
-0.1450568	bin </s>
-0.4393327	bird and
-0.544068	black </s>
-0.544068	black and	-0.1095432
-1.761552	black has
-1.761552	black keyboard
-1.761552	black oven
-1.761552	black seat
-1.761552	black stove
-1.761552	black text
-1.761552	black the
-1.19771	black with
-0.4460868	blade </s>
-1.217484	blade a
-1.217484	blade and
-1.217484	blade brown
-0.7403627	blender </s>
-0.7403627	blender and
-0.5371192	blue </s>
-1.159297	blue and
-1.159297	blue chair	0.3399001
-0.4913617	blue couch	0.1536662
-1.366853	blue loveseat
-1.930694	blue mummy
-1.930694	blue sink
-1.366853	blue with
-0.06694679	board </s>
-1.284431	board with
-0.4393327	body is
-0.3853509	book </s>
-1.199414	book and	0.05611449
-1.970812	book case
-1.40697	book cases
-1.970812	book has
-0.7705645	book is	-0.2027105
-1.40697	book on
-1.40697	book or
-1.970812	book should
-1.970812	book with
-0.3526122	bookmark </s>
-0.916454	bookmark on
-0.4393327	books is
-1.480725	boom </s>
-0.04139268	boom box	0.3628247
-0.4393327	border of
-0.4393327	both of
-1.439333	bottle </s>
-0.6679356	bottle and
-0.4216708	bottle of	-0.1691001
-1.439333	bottle or
-0.9546722	bottles </s>
-1.518514	bottles in
-1.518514	bottles inside
-0.1760913	bottles of	-0.190908
-1.138303	bottom </s>
-1.138303	bottom and
-1.138303	bottom of
-0.5744609	bottom part
-0.1765209	bouquet of	-0.1802803
-0.1760913	bow </s>
-0.8297334	bow and	-0.1913651
-1.393575	bow arrow
-0.4393327	bowl </s>
-1.041393	bowls </s>
-1.041393	bowls and
-1.041393	bowls are
-1.041393	bowls have
-0.03778856	box </s>
-1.518514	box brown
-0.07918125	bracelet </s>
-1.518514	bracelet can
-1.518514	bracelet underneath
-0.4393327	brand </s>
-0.7403627	brass handle
-0.7403627	brass hinges
-0.5744609	bridge </s>
-1.138303	bridge going
-1.138303	bridge on
-1.138303	bridge that
-0.4393327	bright brown
-0.4393327	bronze key
-1.130334	brown </s>
-0.9285223	brown and
-1.901731	brown arrows
-1.901731	brown book
-1.901731	brown box
-1.901731	brown ceramic
-1.901731	brown chair
-1.901731	brown color
-1.130334	brown door	0.4833223
-1.337889	brown handle
-1.901731	brown mummy
-1.901731	brown ottoman
-1.901731	brown shelf
-1.337889	brown table
-1.901731	brown thing
-1.901731	brown vase
-1.130334	brown with
-1.901731	brown wood
-0.4393327	brownish color
-0.4393327	bucket of
-0.1765209	bunch of
-1.041393	but i
-1.041393	but not
-1.041393	but they
-1.041393	but this
-0.4393327	butcher knife
-0.1650944	butter </s>
-1.138303	butter with
-0.1014576	cabinet </s>
-1.819544	cabinet and
-1.819544	cabinet right
-1.048147	cabinet with	-0.1140089
-0.7403627	came back
-0.7403627	came out
-0.5563025	can </s>
-1.607885	can and
-2.171726	can do
-2.171726	can go
-0.3706659	can i	-0.3818543
-2.171726	can land
-2.171726	can lay
-1.607885	can move	0.142771
-2.171726	can not
-1.400329	can of
-2.171726	can open
-2.171726	can potentially
-1.607885	can see	-0.150052
-0.4661244	candle </s>
-1.439333	candle holder
-1.439333	candle in
-0.6679356	candle on	0.02163801
-1.439333	candle stand
-0.4393327	candleholder of
-0.1249387	candles </s>
-1.342423	candles are
-1.342423	candles on
-0.1765209	candlestick </s>
-0.3669056	cannot move	-0.08128644
-1.138303	cannot open
-1.138303	cannot take
-0.4393327	cans </s>
-0.4393327	cap on
-0.4393327	carvings </s>
-0.4393327	case </s>
-0.7403627	cases </s>
-0.7403627	cases and
-0.1765209	casket </s>
-0.1206408	cassette player	-0.005205307
-0.4393327	cast </s>
-0.3692144	cd </s>
-1.342423	cd disk
-1.342423	cd or
-0.7785809	cd player	0.2049189
-0.7403627	center </s>
-0.7403627	center speaker
-0.4393327	central console
-0.4393327	ceramic </s>
-0.1856366	chair </s>
-1.538249	chair a
-2.102091	chair an
-1.128882	chair and	0.03840019
-2.102091	chair chair
-2.102091	chair in
-2.102091	chair is
-2.102091	chair one
-2.102091	chair sits
-1.538249	chair that	-0.1783127
-1.538249	chair with	0.07734005
-0.1191864	chairs </s>
-1.273431	chairs a
-1.837273	chairs and
-1.837273	chairs one
-1.837273	chairs two
-1.837273	chairs with
-0.4393327	chalice </s>
-0.3526122	chandelier </s>
-0.916454	chandelier with
-0.4393327	character </s>
-0.4393327	checkered red
-0.7785809	chess </s>
-1.342423	chess and
-1.342423	chess board
-0.3692144	chess set	0.02273859
-0.2442756	chessboard </s>
-1.217484	chessboard two
-1.217484	chessboard with
-0.4393327	chin piece
-0.4393327	circular pieces
-0.06694679	cleaver </s>
-1.284431	cleaver with
-0.4393327	clicked i
-0.4216708	clock </s>
-0.6679356	clock and	0.05611449
-0.8754909	clock on	-0.05264539
-0.2804783	closed </s>
-0.9168836	closed and
-0.9168836	closed book	0.03742781
-0.4393327	co rom
-0.8297334	coffee machine	0.6447246
-0.1760913	coffee maker	0.1064293
-1.393575	coffee pot
-0.916454	coffeemaker </s>
-0.916454	coffeemaker is
-0.916454	coffeemaker or
-0.1165056	coffin </s>
-1.669782	coffin has
-1.669782	coffin or
-1.10594	coffin that	-0.0961111
-0.2304489	coin </s>
-1.669782	coin and
-1.669782	coin in
-1.669782	coin is
-1.669782	coin it
-1.669782	coin on
-1.10594	coin under	0.07582422
-0.5744609	color </s>
-0.5744609	color and	-0.1635008
-1.138303	color on
-0.4393327	colored </s>
-0.1765209	colors </s>
-0.7403627	column </s>
-0.7403627	column is
-0.4393327	columns </s>
-0.4393327	come </s>
-0.4393327	coming out
-0.3735807	computer </s>
-1.854306	computer and
-1.082909	computer desk	0.3693789
-1.854306	computer in
-1.854306	computer is
-1.290464	computer on
-1.854306	computer one
-1.082909	computer room	0.2719052
-1.854306	computer that
-1.854306	computer there
-1.854306	computer with
-0.4393327	console </s>
-0.4393327	contains bottles
-0.4393327	cooking device
-0.4393327	corners </s>
-0.3881802	couch </s>
-1.217914	couch a	-0.1877627
-1.781755	couch again
-0.8085471	couch and
-1.781755	couch but
-1.781755	couch has
-1.217914	couch is
-1.781755	couch or
-1.781755	couch two
-0.4775509	couches </s>
-1.041393	couches and
-1.041393	couches one
-0.4393327	could sit
-0.7403627	couple of
-0.7403627	couple swords
-0.4393327	cover </s>
-0.4393327	covered in
-0.4393327	covers below
-0.4393327	cross the
-0.4393327	crossed </s>
-0.3526122	crown </s>
-0.916454	crown on
-0.2699956	cube </s>
-1.041393	cube looking
-0.06818437	cup </s>
-0.4393327	curly </s>
-0.4393327	curved </s>
-0.7403627	cushion </s>
-0.7403627	cushion seat
-0.4393327	cushions </s>
-0.4393327	cylinder </s>
-0.7403627	cylindrical object
-0.7403627	cylindrical vase
-0.4460868	dagger </s>
-1.217484	dagger a
-1.217484	dagger looking
-1.217484	dagger under
-0.916454	dark </s>
-0.916454	dark device
-0.916454	dark green
-0.4393327	dead end
-0.4393327	decent size
-0.3526122	decorated </s>
-0.916454	decorated in
-0.4393327	decorations on
-0.4393327	decorative plating
-0.4393327	deer with
-0.4393327	deers and
-0.4393327	den of
-0.4393327	describe it
-0.1706962	desk </s>
-1.269996	desk a	-0.1149197
-1.269996	desk and	0.05611449
-2.041393	desk chair
-2.041393	desk is
-2.041393	desk that
-2.041393	desk there
-1.269996	desk with	0.1516235
-0.4393327	desktop computer
-0.1765209	device </s>
-0.7403627	dial </s>
-0.7403627	dial on
-0.4393327	diamonds or
-0.2699956	did </s>
-1.041393	did not
-0.720589	different </s>
-1.284431	different passageways
-0.3112224	different room	0.1469664
-0.4393327	dishes </s>
-0.146128	disk </s>
-1.585461	disk a
-1.021619	disk in	-0.02866824
-1.585461	disk inside
-0.4393327	display </s>
-1.718086	do </s>
-0.3756636	do i	-0.04126795
-1.718086	do in
-0.9466892	do not	0.0429179
-1.718086	do now
-1.154245	do see	0.2701644
-1.154245	do to
-1.718086	do you
-0.06818437	does not	0.113329
-0.1765209	dog </s>
-0.1450568	dogs on	0.08953824
-0.4393327	dollar </s>
-0.06694679	done </s>
-0.1249387	door </s>
-1.431793	door and
-1.431793	door in
-1.995635	door red
-1.995635	door should
-1.995635	door so
-1.995635	door that
-1.995635	door the
-0.1421756	doors </s>
-1.342423	doors one
-0.353029	down </s>
-1.553276	down into
-0.7818789	down the
-0.9894343	down to
-0.06818437	downstairs </s>
-0.199822	drawer </s>
-1.217484	drawer under
-0.06694679	drawers </s>
-1.284431	drawers are
-0.4393327	drawn over
-0.4393327	dress </s>
-0.916454	dresser </s>
-0.3526122	dresser with
-0.4393327	drinking tea
-0.7403627	each other
-0.7403627	each side
-0.4393327	early egyptian
-0.4393327	edge </s>
-0.4522977	egyptian </s>
-1.669782	egyptian and
-1.669782	egyptian era
-1.669782	egyptian it
-1.669782	egyptian mask
-1.669782	egyptian nameplates
-1.669782	egyptian person
-1.10594	egyptian statue
-1.669782	egyptian symbols
-1.669782	egyptian thing
-1.669782	egyptian writing
-0.916454	either </s>
-0.916454	either a
-0.916454	either upstairs
-0.4393327	electronic </s>
-0.06694679	electronics </s>
-1.284431	electronics gold
-0.5744609	else </s>
-0.5744609	else in
-1.138303	else to
-0.4393327	emerald ring
-0.1765209	emeralds on	-0.05264539
-0.7403627	empty and
-0.7403627	empty filing
-0.916454	end </s>
-0.3526122	end table	-0.09892207
-0.4393327	era dogs
-0.4393327	exact same
-0.4393327	expresso machine
-0.2699956	eyes </s>
-1.041393	eyes a
-0.2442756	face </s>
-1.217484	face on
-1.217484	face with
-0.4393327	feather at
-0.4393327	fell down
-0.4393327	fern in
-0.7403627	few columns
-0.7403627	few pots
-0.4393327	figure on
-0.05115252	file cabinet	0.2437592
-0.03778856	filing cabinet	0.5073411
-0.916454	find </s>
-0.916454	find a
-0.916454	find another
-0.7403627	first drawer
-0.7403627	first room
-0.08418363	floor </s>
-0.1206408	floppy disk	0.4385518
-0.4393327	flower i
-0.09017663	flowers </s>
-1.643453	flowers a
-1.643453	flowers in
-1.643453	flowers some
-0.4393327	food </s>
-0.4393327	foot rest
-0.2699956	footstool </s>
-1.041393	footstool is
-0.8983845	for </s>
-1.669782	for a
-1.669782	for drinking
-1.10594	for electronics	0.6520769
-1.669782	for more
-1.669782	for relaxing
-1.669782	for several
-1.669782	for strange
-1.10594	for the
-0.6965733	for vendetta	0.09000239
-0.2442756	forest </s>
-1.217484	forest and
-1.217484	forest path
-0.04575749	found a	-0.03322823
-1.439333	found the
-1.480725	four bowls
-1.480725	four chair
-0.2632414	four chairs	0.3072455
-0.7093282	four plates	-0.0003030971
-0.4393327	fox </s>
-0.4393327	frame and
-1.138303	from a
-0.3669056	from the	-0.1004489
-1.138303	from v
-0.916454	front and
-0.3526122	front of	-0.1549311
-0.4216708	fruit </s>
-0.8754909	fruit and
-1.439333	fruit in
-1.439333	fruit next
-1.439333	fruit on
-0.4393327	fruits </s>
-0.4393327	furniture </s>
-0.4393327	futon </s>
-1.041393	game </s>
-1.041393	game board
-1.041393	game of
-1.041393	game room
-0.916454	garbage basket
-0.3526122	garbage bin	0.3537366
-0.1450568	gems </s>
-0.9546722	glass </s>
-1.518514	glass a
-1.518514	glass and
-1.518514	glass one
-0.3182668	glass table	0.04378188
-0.4393327	glock </s>
-0.9132824	go </s>
-1.115094	go back
-1.322649	go downstairs	0.6447246
-1.886491	go either
-1.886491	go into
-1.886491	go now
-1.886491	go somewhere
-0.8688288	go through	0.2966482
-0.8688288	go to	-0.07537337
-1.886491	go up
-0.9132824	go upstairs	0.2836436
-1.480725	going </s>
-0.7093282	going back	-0.03307428
-0.7093282	going down
-1.480725	going through
-1.480725	going to
-0.9168836	going up
-0.7162068	gold </s>
-1.145057	gold and
-1.145057	gold bracelet	0.5846736
-1.916454	gold candle
-1.916454	gold colors
-1.352612	gold cup	0.6447246
-1.916454	gold gold
-1.916454	gold highly
-1.352612	gold mask
-1.352612	gold on
-1.352612	gold one
-1.352612	gold ring	0.2569479
-1.352612	gold the
-1.916454	gold vase
-1.021619	golden </s>
-1.585461	golden bracelet
-1.585461	golden candlestick
-1.585461	golden cup
-1.021619	golden object
-0.3679768	golden ring	0.5145259
-1.585461	golden statue
-0.3526122	got the
-0.916454	got to
-1.342423	gray and
-1.342423	gray cassette
-1.342423	gray garbage
-1.342423	gray in
-1.342423	gray rim
-1.342423	gray spikes
-1.342423	gray square
-1.342423	gray thing
-0.9466892	green </s>
-0.9466892	green and
-1.718086	green arrows
-1.718086	green bottle
-1.718086	green chair
-1.718086	green diamonds
-1.718086	green filing
-1.154245	green gems	0.3537366
-1.718086	green handle
-1.718086	green hilt
-1.718086	green office
-1.718086	green stones
-1.718086	green stuff
-1.718086	green wine
-0.4393327	guard </s>
-0.4393327	guess </s>
-0.2390856	gun </s>
-0.6679356	gun in
-0.916454	guy </s>
-0.916454	guy fox
-0.916454	guy in
-0.4393327	hair </s>
-0.4393327	hallway above
-0.1650944	handgun </s>
-1.138303	handgun in
-0.4216708	handle </s>
-0.6679356	handle and	-0.0186255
-1.439333	handle looks
-1.439333	handle the
-0.4393327	hanging on
-0.9176487	has </s>
-2.398374	has Mac
-0.3058289	has a	0.001516923
-2.398374	has armrests
-2.398374	has big
-2.398374	has bottles
-1.834532	has egyptian
-2.398374	has emeralds
-2.398374	has green
-2.398374	has it
-2.398374	has legs
-2.398374	has no
-2.398374	has pillows
-2.398374	has several
-2.398374	has silver
-1.834532	has some
-2.398374	has speakers
-2.398374	has surrounded
-1.425166	has three	-0.05430762
-0.8798602	has two	-0.03523732
-2.398374	has wings
-0.2442756	hatchet </s>
-1.217484	hatchet and
-1.217484	hatchet swords
-1.615424	have egyptian
-1.615424	have found
-1.051582	have it	0.01109888
-1.615424	have moved
-1.615424	have some
-1.615424	have something
-1.615424	have taken
-0.39794	have the
-1.615424	have tried
-0.7403627	head </s>
-0.7403627	head dress
-0.4393327	headdress maybe
-0.1765209	heavy </s>
-0.1421756	helmet </s>
-1.342423	helmet viking
-0.3526122	here </s>
-0.916454	here should
-0.2699956	hidden </s>
-1.041393	hidden behind
-0.4393327	high in
-0.4393327	highly decorated
-0.4393327	hilt and
-0.4393327	hinges </s>
-0.4216708	holder </s>
-1.439333	holder a
-1.439333	holder has
-1.439333	holder it
-1.439333	holder that
-1.439333	holder with
-0.1765209	holes in	-0.1078495
-1.041393	how </s>
-1.041393	how about
-0.4775509	how do	0.04433982
-0.1765209	human looking
-3.095431	i </s>
-2.077769	i also	-0.2086071
-1.895184	i am	0.04576933
-1.701856	i can	-0.05347803
-2.122223	i cannot	0.1073912
-3.095431	i clicked
-2.122223	i did	0.198002
-1.753008	i do	-0.03697824
-3.095431	i find
-1.701856	i found	0.329401
-1.313676	i go	0.2223278
-2.324034	i got	0.1361914
-3.095431	i guess
-1.576917	i have	0.06979467
-3.095431	i jest
-1.877947	i just	0.0007332005
-2.077769	i look	0.01180821
-2.531589	i looking	-0.0359413
-3.095431	i mean
-2.077769	i move	0.2685049
-3.095431	i moved
-2.531589	i need	0.2832421
-1.877947	i open	-0.1450522
-3.095431	i opened
-1.50997	i pick	0.5747524
-3.095431	i picked
-3.095431	i reappeared
-0.2427984	i see	0.2384902
-2.324034	i should	1.304508
-2.324034	i started	0.1361914
-3.095431	i stay
-3.095431	i still
-1.576917	i take	0.5461677
-1.877947	i think	0.35328
-1.50997	i took	0.7150801
-1.50997	i try	0.3679645
-3.095431	i want
-2.324034	i was
-2.324034	i went	0.05713888
-0.4393327	identical </s>
-0.4393327	important in
-2.302655	in </s>
-2.302655	in Mediterranean
-0.7171948	in a	-0.08166535
-2.302655	in and
-2.302655	in another
-2.302655	in carvings
-2.302655	in early
-2.302655	in front
-2.302655	in here
-0.7493795	in it	-0.3163696
-2.302655	in orange
-2.302655	in that
-0.501595	in the	-0.08565632
-0.7493795	in this	-0.4584559
-0.4393327	indistinguishable figure
-0.1765209	inside </s>
-0.5744609	into a
-0.3669056	into the
-1.471825	is </s>
-0.3459003	is a	0.02190611
-2.95255	is actually
-2.181153	is all	0.01580473
-2.388709	is also
-1.752303	is an	-0.02830005
-2.181153	is another
-2.95255	is beige
-2.95255	is big
-2.388709	is bigger
-1.934888	is black	0.07884089
-1.752303	is blue	0.03050782
-1.735066	is brown	-0.1302201
-1.752303	is closed	0.1107428
-2.95255	is covered
-2.95255	is dark
-2.388709	is decorated
-2.388709	is egyptian
-2.95255	is electronic
-2.95255	is for
-2.95255	is from
-2.388709	is fruit
-2.181153	is glass
-1.934888	is gold	-0.04756307
-2.95255	is golden
-2.95255	is gray
-1.979342	is green	-0.08434601
-2.95255	is heavy
-2.95255	is in
-2.181153	is it
-2.388709	is just
-2.95255	is light
-2.95255	is like
-2.181153	is long	-0.07504308
-2.95255	is longer
-2.95255	is modern
-2.95255	is much
-1.979342	is of	-0.2139823
-2.95255	is on
-2.388709	is one
-1.610128	is open	-0.02705264
-2.388709	is orange
-2.95255	is pink
-2.95255	is porcelain
-2.388709	is purple	-0.1013518
-2.95255	is really
-2.95255	is rectangular
-2.388709	is red
-2.95255	is right
-2.388709	is short	-0.0745865
-1.471825	is silver	0.08198833
-2.388709	is sitting
-2.388709	is small
-2.95255	is smaller
-2.181153	is some
-2.181153	is something
-2.95255	is stairs
-2.181153	is standing
-2.388709	is tan	-0.0005393177
-1.610128	is there	-0.2943066
-2.181153	is this	-0.1613881
-2.95255	is three
-2.95255	is two
-2.95255	is very
-2.95255	is what
-1.934888	is white	-0.05296931
-1.979342	is wood	-0.0002107769
-2.388709	is wooden	-0.1235322
-2.95255	is yellow
-0.4259687	it </s>
-2.740363	it a
-1.722701	it and	-0.06563118
-1.540116	it appears	0.7172992
-2.740363	it contains
-2.176521	it does	0.6447246
-0.7328283	it has	0.02349743
-2.740363	it i
-2.740363	it in
-0.9208187	it is	0.05508885
-2.740363	it looking
-0.9788107	it looks	0.22132
-2.740363	it moved
-2.740363	it must
-2.740363	it or
-2.740363	it piece
-2.740363	it returned
-2.740363	it safe
-2.176521	it should	1.230225
-2.740363	it some
-2.740363	it that
-2.176521	it the
-1.540116	it up	-0.354329
-1.968966	it was
-2.740363	it will
-2.740363	it with
-0.7403627	its arms
-0.7403627	its head
-0.4393327	jade </s>
-0.4393327	jar of
-0.4393327	jars of
-0.4393327	jest went
-0.4393327	jug that
-1.480725	just a
-0.9168836	just came
-1.480725	just fell
-1.480725	just in
-1.480725	just opened
-1.480725	just standing
-1.480725	just stone
-1.480725	just turned
-1.480725	just walked
-1.480725	just white
-0.05799195	key </s>
-1.643453	key a
-1.643453	key behind
-0.5130336	keyboard </s>
-1.284431	keyboard a
-0.5130336	keyboard and	0.05611449
-0.05115252	kind of	-0.05140422
-0.1650944	kitchen </s>
-1.138303	kitchen of
-0.1845244	knife </s>
-1.290464	knife behind	0.2592766
-1.854306	knife can
-1.854306	knife is
-1.854306	knife on
-1.854306	knife that
-1.854306	knife under
-1.290464	knife with
-0.4393327	knives </s>
-0.7403627	knob </s>
-0.7403627	knob on
-0.4393327	know anything
-0.06818437	label </s>
-0.4393327	laminated </s>
-0.1933281	lamp </s>
-1.393575	lamp a
-1.393575	lamp clock
-0.4393327	land </s>
-1.138303	large butcher
-1.138303	large cabinet
-1.138303	large cylinder
-1.138303	large pedestal
-1.138303	large wooden
-0.4393327	larger than
-0.916454	larva </s>
-0.916454	larva and
-0.916454	larva maybe
-0.4393327	last time
-0.4393327	lay down
-0.4393327	lead up
-0.7403627	leading to
-0.7403627	leading up
-0.1765209	leads to
-0.4393327	leave </s>
-0.4393327	leaving the
-0.4393327	ledges a
-0.4393327	left </s>
-0.7403627	legs above
-0.7403627	legs that
-0.4393327	let me
-0.1765209	letter under
-0.7403627	light colors
-0.7403627	light one
-0.3247608	lighthouse </s>
-0.7785809	lighthouse and
-1.342423	lighthouse in
-1.078908	like </s>
-0.2148439	like a	-0.04959452
-2.052117	like an
-2.052117	like either
-1.488275	like it
-2.052117	like no
-2.052117	like one
-2.052117	like some
-2.052117	like the
-2.052117	like they
-2.052117	like three
-2.052117	like to
-2.052117	like wings
-0.1765209	liquor </s>
-1.041393	little </s>
-1.041393	little bridge
-1.041393	little egyptian
-1.041393	little gold
-0.4393327	locks </s>
-0.6221781	long and	-0.1639574
-0.8297334	long blade
-1.393575	long hallway
-1.393575	long objects
-0.8297334	long sword
-0.4393327	longer than
-1.342423	look </s>
-1.342423	look at
-1.342423	look behind
-1.342423	look different
-0.7785809	look in	-0.02866824
-1.342423	look like
-1.342423	look very
-1.718086	looking </s>
-0.7004244	looking around	0.1855551
-0.9466892	looking at	0.01580473
-1.718086	looking egyptian
-1.718086	looking face
-0.5178392	looking for	-0.02929404
-1.718086	looking thing
-1.40697	looks </s>
-1.970812	looks an
-1.40697	looks kind	0.7612214
-0.1165056	looks like	0.2303856
-1.970812	looks old
-1.970812	looks similar
-1.970812	looks suspiciously
-0.199822	lot of	-0.09403156
-1.217484	lot shorter
-0.4393327	lots of
-0.7403627	loveseat </s>
-0.7403627	loveseat with
-0.06818437	machine </s>
-0.4393327	macintosh disk
-0.2667688	made of	-0.1352518
-0.720589	made out	0.09805022
-0.4460868	maker </s>
-1.217484	maker and
-1.217484	maker in
-1.217484	maker is
-0.916454	man in
-0.916454	man sitting
-0.916454	man with
-0.4393327	marker </s>
-0.243038	mask </s>
-1.021619	mask has
-1.585461	mask maybe
-1.585461	mask one
-1.585461	mask painting
-1.585461	mask there
-0.199822	maybe </s>
-1.217484	maybe the
-1.041393	me pick
-1.041393	me the
-0.4775509	me to
-0.4393327	mean nine
-0.1450568	meat cleaver	0.7263603
-0.5130336	metal </s>
-1.284431	metal armchairs
-1.284431	metal can
-1.284431	metal meat
-1.284431	metal object
-0.7403627	middle and
-0.7403627	middle of
-0.4393327	midrange </s>
-0.4393327	might be
-0.4393327	millimeter or
-0.4393327	modern made
-0.2699956	monitor </s>
-1.041393	monitor computer
-0.916454	more </s>
-0.916454	more about
-0.916454	more doors
-0.4393327	motifs </s>
-0.4393327	mounting with
-0.3112224	mouse </s>
-1.284431	mouse and
-1.284431	mouse pad
-1.284431	mouse there
-0.4393327	mouth </s>
-0.8366441	move </s>
-1.854306	move a
-1.082909	move it	0.01064229
-1.854306	move on
-1.854306	move that
-0.2688453	move the	-0.01859289
-1.854306	move this
-0.916454	moved </s>
-0.916454	moved it
-0.916454	moved to
-0.4393327	moves i
-0.4393327	movie </s>
-0.7403627	moving the
-0.7403627	moving to
-0.7403627	much </s>
-0.7403627	much larger
-0.154902	mummy </s>
-1.740363	mummy and
-0.9689656	mummy is
-1.740363	mummy sat
-1.740363	mummy this
-0.1765209	music player	0.2049189
-0.4393327	must be
-0.4393327	name plates
-0.4393327	nameplates on
-0.4393327	near the
-0.1765209	need to	-0.1862419
-0.4393327	neither of
-0.4393327	net </s>
-0.4393327	new room
-1.585461	next door
-1.585461	next object
-1.585461	next room
-0.1047354	next to	-0.3522896
-0.916454	nine cube
-0.916454	nine millimeter
-0.916454	nine slots
-0.06908092	no </s>
-1.970812	no armrests
-1.970812	no decorations
-1.970812	no electronics
-1.40697	no i	-0.1852829
-0.4393327	none of
-0.507517	not </s>
-1.480725	not another
-1.480725	not let
-0.7093282	not move	-0.05036579
-0.9168836	not see
-0.4393327	nothing </s>
-0.3692144	now </s>
-1.342423	now in
-1.342423	now there
-0.7785809	now what
-0.544068	object </s>
-1.761552	object and
-0.9901549	object i	0.2495588
-1.761552	object is
-0.544068	object next	0.1744991
-0.7883437	object on	0.1560703
-0.4460868	objects </s>
-1.217484	objects on
-1.217484	objects one
-1.217484	objects sticking
-0.4393327	octopus </s>
-1.538942	of </s>
-0.6701133	of a	-0.1795425
-2.556604	of arrows
-2.556604	of black
-2.556604	of brown
-2.556604	of chess
-1.538942	of flowers	0.4936367
-1.583396	of fruit	-0.02379235
-2.556604	of glass
-2.556604	of gold
-1.075879	of it	-0.145174
-2.556604	of larva
-1.583396	of like	0.09024745
-1.992762	of liquor	0.2832421
-2.556604	of little
-2.556604	of long
-2.556604	of me
-1.785207	of metal	-0.0342871
-2.556604	of orange
-1.583396	of paper	0.2298801
-1.992762	of peanut	0.4221939
-2.556604	of picture
-2.556604	of pillar
-2.556604	of pop
-1.992762	of pots	0.001075879
-2.556604	of print
-2.556604	of scrolls
-1.785207	of shampoo	0.6516203
-2.556604	of soap
-2.556604	of soda
-1.583396	of some	-0.07689624
-2.556604	of stairs
-2.556604	of statue
-2.556604	of stone
-2.556604	of symbols
-1.356357	of the
-1.117271	of them	0.004896164
-2.556604	of thing
-2.556604	of tomb
-2.556604	of vase
-2.556604	of wall
-1.992762	of white
-1.356357	of wine	-0.1686367
-2.556604	of wood
-2.556604	of yellow
-0.916454	office chair
-0.916454	office or
-0.916454	office with
-0.09455611	ok </s>
-1.538249	ok can	0.04801095
-1.084429	ok i	-0.05365347
-2.102091	ok now
-2.102091	ok shall
-0.1450568	old </s>
-2.460522	on </s>
-0.7659168	on a	-0.2770086
-2.460522	on another
-2.460522	on each
-0.5587913	on it	-0.2809457
-2.460522	on legs
-0.4191293	on the	-0.2337964
-1.89668	on them
-2.460522	on this
-0.9797966	on top	0.07077017
-0.8939466	one </s>
-2.588552	one appears
-2.588552	one axe
-2.02471	one behind	0.2592766
-1.57089	one book	-0.3346118
-2.588552	one brown
-2.588552	one cd
-2.588552	one chair
-2.588552	one door
-2.588552	one from
-2.588552	one gold
-1.194977	one has	-0.06450516
-0.3498785	one is	0.2256611
-2.588552	one keyboard
-2.588552	one long
-2.588552	one looks
-2.588552	one monitor
-2.588552	one object
-1.194977	one of	-0.2749005
-2.588552	one on
-2.588552	one open
-2.02471	one person
-2.02471	one picture
-2.588552	one plant
-2.588552	one room
-2.588552	one should
-2.588552	one sitting
-2.02471	one sword
-1.615343	one table	-0.1012196
-2.02471	one that	-0.06808238
-2.588552	one the
-1.817155	one with	-0.1642704
-1.837273	open </s>
-1.837273	open a
-1.065876	open and	-0.08921742
-0.8196108	open book	-0.1000486
-1.837273	open it
-0.8640644	open one	0.1712503
-0.49485	open the	-0.09545517
-1.837273	open up
-1.837273	open with
-0.916454	opened </s>
-0.916454	opened it
-0.916454	opened the
-0.7403627	opening a
-0.7403627	opening the
-1.995635	or </s>
-0.5563025	or a	-0.04670109
-1.995635	or bowls
-1.995635	or cans
-1.995635	or cassette
-1.995635	or chairs
-1.995635	or chalice
-1.995635	or closed
-1.995635	or downstairs
-1.995635	or emeralds
-1.995635	or go
-1.995635	or just
-1.995635	or purple
-1.995635	or red
-1.995635	or sarcophagus
-1.995635	or sofa
-1.995635	or something
-1.995635	or stereo
-1.995635	or stool
-0.9779733	or the
-1.995635	or trophy
-1.995635	or wastebasket
-1.995635	or wine
-0.6257908	orange </s>
-1.643453	orange color
-0.8720555	orange door	0.4833223
-1.643453	orange eyes
-1.643453	orange flowers
-1.643453	orange object
-1.643453	orange one
-1.643453	orange the
-1.079611	orange vase
-0.1249387	oranges </s>
-1.342423	oranges are
-1.342423	oranges some
-0.4393327	original stairs
-1.290464	other </s>
-1.854306	other and
-1.854306	other book
-1.290464	other does	0.6447246
-1.290464	other has	0.1032625
-0.8366441	other is	0.1930774
-1.082909	other one	-0.0594237
-1.290464	other picture
-1.854306	other plant
-1.290464	other room	0.2723618
-1.854306	other rooms
-1.854306	other side
-1.854306	other the
-1.854306	other way
-1.854306	other with
-0.916454	ottoman </s>
-0.3526122	ottoman and	-0.01816891
-1.284431	out from
-0.3112224	out of	-0.04778415
-0.720589	out the
-0.1249387	oven </s>
-1.342423	oven and
-1.342423	oven in
-0.1765209	over it	0.01109888
-0.4393327	pad underneath
-0.1765209	paddle </s>
-0.5744609	paddles </s>
-0.5744609	paddles and
-1.138303	paddles for
-0.4393327	page marker
-0.4393327	pages with
-0.3759133	painting </s>
-1.393575	painting a
-0.8297334	painting of	-0.08858703
-1.393575	painting on
-0.4393327	paintings on
-0.4393327	pan </s>
-0.4393327	panel in
-0.06818437	pans </s>
-0.2442756	paper </s>
-1.217484	paper roll
-1.217484	paper with
-0.4775509	part is	-0.1781141
-1.041393	part of
-1.041393	part the
-0.4393327	parts of
-0.4393327	passageways </s>
-0.7403627	path </s>
-0.7403627	path through
-0.4393327	peacock feather
-0.1206408	peanut butter	0.2666253
-0.4393327	pedestal with
-0.4393327	people and
-0.916454	person could
-0.916454	person seated
-0.916454	person sits
-0.3526122	pharaoh </s>
-0.916454	pharaoh sitting
-1.694605	pick </s>
-1.694605	pick can
-0.4771213	pick it	-0.4818018
-0.2552725	pick up	-0.509231
-0.4393327	picked it
-0.5314789	picture </s>
-1.970812	picture from
-1.970812	picture has
-1.199414	picture is
-0.4900862	picture of	-0.6533151
-1.199414	picture on	0.01479825
-1.970812	picture over
-0.9976033	picture with	-0.1072447
-0.09691001	pictures </s>
-1.439333	pictures drawn
-1.439333	pictures one
-1.041393	piece </s>
-0.2699956	piece of	-0.181993
-0.4775509	pieces </s>
-1.041393	pieces of
-1.041393	pieces on
-0.3526122	pillar </s>
-0.916454	pillar type
-0.1650944	pillars </s>
-1.138303	pillars with
-1.041393	pillow </s>
-0.4775509	pillow in	-0.02866824
-1.041393	pillow on
-0.1765209	pillows </s>
-0.0234811	ping pong	0.2638994
-0.7403627	pink </s>
-0.7403627	pink or
-0.4393327	pipes on
-0.4393327	pistol in
-0.4216708	plant </s>
-1.439333	plant in
-0.8754909	plant is
-1.439333	plant on
-1.439333	plant sitting
-0.2699956	plants </s>
-1.041393	plants on
-0.4393327	plastic it
-0.4203669	plates </s>
-0.6221781	plates and
-1.393575	plates chairs
-1.393575	plates or
-0.4393327	plating on
-0.2218488	player </s>
-1.439333	player and
-0.8754909	player is
-1.439333	player with
-0.199822	plunger </s>
-1.217484	plunger a
-1.694605	pong and
-0.6769433	pong ball	0.1048652
-1.694605	pong paddle
-1.130763	pong paddles
-0.30103	pong table	-0.0653626
-0.7403627	pop </s>
-0.7403627	pop bottle
-0.7403627	porcelain </s>
-0.7403627	porcelain it
-0.5453056	pot </s>
-1.518514	pot a
-1.518514	pot and
-0.5453056	pot of	-0.07313339
-0.9546722	pot sitting	0.13149
-0.4393327	potentially leave
-0.4432056	pots </s>
-0.8720555	pots and	-0.1170817
-1.643453	pots maybe
-1.079611	pots on
-0.8720555	pots sitting	0.1310334
-0.1765209	potted plant
-0.4393327	pottery on
-0.4393327	pretty high
-0.4393327	print on
-0.7403627	pumpkin </s>
-0.7403627	pumpkin a
-0.720589	purple and
-1.284431	purple color
-1.284431	purple object
-0.5130336	purple vase	0.2015975
-0.4393327	put back
-0.4393327	puzzle </s>
-0.4393327	quarter </s>
-0.3526122	rack </s>
-0.916454	rack that
-0.2442756	radio </s>
-1.217484	radio a
-1.217484	radio stereo
-0.4393327	raffle thing
-0.4393327	range </s>
-0.7403627	really else
-0.7403627	really short
-0.4393327	reappeared back
-0.4393327	rectangular </s>
-1.801061	red </s>
-1.801061	red and
-1.801061	red blue
-1.237219	red bookmark	0.06190796
-1.801061	red cup
-0.4074853	red door	0.1134255
-1.801061	red doors
-1.801061	red page
-1.801061	red ribbon
-1.801061	red roses
-1.801061	red seal
-1.801061	red soap
-1.801061	red the
-1.801061	red thing
-0.4393327	relaxing </s>
-0.7403627	repeat </s>
-0.7403627	repeat that
-0.4393327	rest </s>
-0.4393327	returned me
-0.4393327	ribbon </s>
-1.284431	right here
-0.5130336	right next	0.4755291
-0.720589	right room	0.2723618
-1.284431	right under
-0.4393327	rim and
-0.1903317	ring </s>
-1.930694	ring and
-0.9130325	ring behind	0.6716844
-1.930694	ring is
-1.930694	ring it
-1.930694	ring that
-1.930694	ring under
-1.930694	ring very
-0.4393327	road </s>
-0.4393327	roll </s>
-0.4393327	rolls of
-0.4393327	rom or
-0.1820816	room </s>
-2.302655	room for
-1.284994	room has	0.06292154
-2.302655	room leaving
-2.302655	room or
-2.302655	room right
-2.302655	room should
-1.329447	room that	-0.06593238
-2.302655	room there
-2.302655	room to
-2.302655	room walking
-2.302655	room where
-1.085172	room with	0.1843086
-2.302655	room yes
-0.1765209	rooms </s>
-0.3526122	roses </s>
-0.916454	roses on
-0.7403627	round golden
-0.7403627	round handle
-0.916454	rusty </s>
-0.3526122	rusty key
-0.7403627	safe </s>
-0.7403627	safe to
-1.041393	same </s>
-1.041393	same and
-1.041393	same object
-1.041393	same room
-0.916454	sarcophagus </s>
-0.916454	sarcophagus and
-0.916454	sarcophagus has
-0.4393327	sat in
-0.4393327	screen of
-0.4393327	scrolls on
-0.4393327	sculpture </s>
-0.4393327	seal </s>
-0.4393327	sealed </s>
-0.4393327	searching for
-0.3526122	seat </s>
-0.916454	seat one
-0.7403627	seated </s>
-0.7403627	seated statue
-0.4393327	second statue
-1.025936	see </s>
-0.1832305	see a	0.04225463
-1.86258	see an	0.1088041
-1.440909	see another	-0.02690038
-2.880242	see dishes
-2.880242	see electronics
-2.880242	see four
-2.880242	see fruits
-2.3164	see i	0.1752754
-2.880242	see like
-2.880242	see now
-2.880242	see one
-2.880242	see paintings
-2.880242	see pots
-2.880242	see pottery
-1.86258	see some	-0.04604422
-2.880242	see stone
-2.880242	see table
-1.440909	see the	-0.04312149
-1.86258	see this
-2.3164	see three
-1.326966	see two	0.009144967
-2.880242	see weapons
-2.108845	see what
-2.880242	see where
-0.4393327	seems like
-0.5130336	set </s>
-0.720589	set and
-0.720589	set of
-0.9546722	several </s>
-0.9546722	several bottles
-1.518514	several chairs
-1.518514	several drawers
-1.518514	several egyptian
-1.518514	several name
-1.518514	several people
-1.518514	several pots
-1.518514	several shields
-1.518514	several vases
-0.1765209	shall i
-0.06694679	shampoo </s>
-1.041393	sharp knife
-0.4775509	sharp object	-0.04689306
-1.041393	sharp yes
-0.3669056	shelf </s>
-1.138303	shelf wine
-1.138303	shelf with
-0.4393327	shelves </s>
-0.4393327	shelving system
-0.3247608	shield </s>
-1.342423	shield and
-1.342423	shield to
-1.342423	shield with
-0.1760913	shields </s>
-1.518514	shields and
-0.9546722	shields arrows	0.5473416
-1.518514	shields valuable
-0.6221781	short </s>
-1.393575	short and
-1.393575	short blade
-1.393575	short round
-0.6221781	short sword
-0.4393327	shorter than
-2.163609	should do
-2.163609	should go
-0.01670569	should i	-0.3999309
-1.041393	side </s>
-1.041393	side it
-1.041393	side of
-1.041393	side speakers
-0.60206	silver </s>
-0.9712744	silver and
-1.380641	silver blade	-0.0005393177
-1.944483	silver bracelet
-1.380641	silver coin	0.1923298
-1.944483	silver dollar
-1.944483	silver looks
-1.173086	silver one
-1.944483	silver or
-1.944483	silver ring
-1.944483	silver the
-1.944483	silver thing
-1.380641	silver trash	0.1802822
-0.9712744	silver with	-0.1242097
-0.4393327	similar to
-0.4393327	simple </s>
-0.4393327	single seat
-0.30103	sink </s>
-1.130763	sink and
-1.694605	sink blue
-1.694605	sink has
-1.130763	sink is	-0.1852702
-1.694605	sink like
-1.130763	sink with
-0.4393327	sit there
-0.7403627	sits in
-0.7403627	sits looks
-0.744878	sitting down	-0.06381989
-1.154245	sitting in	-0.1005502
-0.9466892	sitting mummy	0.329401
-0.2787536	sitting on	0.1746133
-0.4393327	six i
-0.3526122	size of
-0.916454	size tan
-0.4393327	slots </s>
-1.290464	small </s>
-1.854306	small and
-1.854306	small axe
-1.854306	small bar
-1.854306	small blade
-1.854306	small bottle
-1.854306	small brown
-1.854306	small end
-1.854306	small gold
-1.290464	small knife
-1.854306	small object
-1.854306	small objects
-1.854306	small ottoman
-0.8810977	small silver	-0.1552716
-1.854306	small statue
-1.854306	small stereo
-1.290464	small table
-1.854306	small trash
-1.290464	small wooden
-0.7403627	smaller </s>
-0.7403627	smaller one
-1.138303	snake appears
-1.138303	snake on
-1.138303	snake one
-0.5744609	snake shield
-0.4393327	so i
-0.199822	soap </s>
-1.217484	soap holder
-0.7403627	soda </s>
-0.7403627	soda can
-0.4775509	sofa </s>
-1.041393	sofa a
-1.041393	sofa is
-1.321148	some </s>
-2.092545	some apples
-2.092545	some blue
-2.092545	some candles
-1.321148	some chairs	0.5010511
-2.092545	some dogs
-2.092545	some drawers
-2.092545	some egyptian
-2.092545	some eyes
-1.321148	some flowers	0.5335211
-1.528703	some kind	0.7612214
-2.092545	some peanut
-1.321148	some plants	0.2157163
-2.092545	some shampoo
-1.528703	some shields
-2.092545	some soap
-0.8922981	some sort	0.2221449
-1.321148	some stairs	0.04607254
-1.528703	some swords	-0.1419223
-2.092545	some towels
-1.119337	some type	0.3635354
-2.092545	some vases
-2.092545	some wine
-0.8297334	something </s>
-1.393575	something gold
-1.393575	something hanging
-0.8297334	something in	-0.1078495
-1.393575	something on
-1.393575	something under
-1.393575	something underneath
-0.4393327	somewhere else
-0.4775509	sony </s>
-1.041393	sony boom
-1.041393	sony brand
-0.7785809	sort </s>
-1.342423	sort i
-0.3247608	sort of
-0.1765209	speaker </s>
-0.06694679	speakers </s>
-1.284431	speakers and
-0.4393327	sphinx </s>
-0.4393327	spikes sticking
-1.138303	square </s>
-1.138303	square and
-1.138303	square on
-1.138303	square with
-1.138303	square wooden
-0.5178392	stairs </s>
-0.5006024	stairs going	0.01068246
-1.718086	stairs is
-1.154245	stairs leading
-1.718086	stairs should
-1.154245	stairs that
-0.3669056	stairway </s>
-1.138303	stairway down
-1.138303	stairway to
-0.4393327	stand </s>
-0.6536422	standing on
-1.217484	standing this
-0.4460868	standing up	-0.08531393
-0.4393327	star </s>
-0.3526122	started </s>
-0.916454	started and
-0.3467875	statue </s>
-1.740363	statue is
-0.9689656	statue of	-0.08904362
-1.740363	statue on
-1.176521	statue sitting	-0.1614545
-1.740363	statue standing
-1.740363	statue that
-1.740363	statue with
-1.740363	statue yes
-0.7403627	statues </s>
-0.7403627	statues i
-0.4393327	stay in
-0.03476211	stereo </s>
-1.553276	stereo or
-0.4393327	stick out
-0.1765209	sticking out	-0.1013518
-0.7403627	still cannot
-0.7403627	still closed
-0.916454	stone </s>
-0.916454	stone and
-0.916454	stone walls
-0.7403627	stones </s>
-0.7403627	stones it
-0.04139268	stool </s>
-1.480725	stool and
-0.4393327	stools or
-0.7403627	storage </s>
-0.7403627	storage unit
-0.1933281	stove </s>
-1.393575	stove a
-1.393575	stove and
-1.041393	strange </s>
-0.4775509	strange object
-1.041393	strange objects
-0.4393327	stuff on
-0.4393327	sugar bowl
-0.4393327	surrounded holes
-0.4393327	suspiciously like
-0.4630635	sword </s>
-1.480725	sword a
-1.480725	sword and
-1.480725	sword has
-1.480725	sword is
-0.9168836	sword with	0.07734005
-0.1760913	swords </s>
-1.518514	swords an
-0.9546722	swords and	-0.1882961
-1.518514	swords but
-0.4393327	symbol </s>
-0.916454	symbols </s>
-0.3526122	symbols on
-0.7403627	system </s>
-0.7403627	system or
-0.3067071	table </s>
-2.325823	table again
-1.108339	table and	-0.03239356
-2.325823	table appears
-2.325823	table chessboard
-2.325823	table either
-1.761982	table has
-1.108339	table is	-0.05354538
-2.325823	table metal
-2.325823	table tennis
-1.554426	table that
-2.325823	table there
-0.7103994	table with	0.242949
-0.1765209	tables </s>
-0.8983845	take </s>
-0.6521197	take it	-0.2112065
-0.2762064	take the	-0.1280515
-0.4393327	taken a
-0.4393327	taking the
-0.7403627	tall desk
-0.7403627	tall pieces
-0.4460868	tan </s>
-0.6536422	tan chair	0.2656167
-1.217484	tan one
-0.4393327	tea </s>
-0.4393327	teapot </s>
-0.1765209	teapots on	-0.05264539
-0.4393327	tennis and
-0.4393327	text </s>
-0.1206408	than the	-0.03836206
-0.4393327	thank you
-1.269996	that </s>
-1.269996	that are
-0.69897	that has	0.3045461
-1.269996	that i
-0.60206	that is	-0.1060051
-2.041393	that lead
-1.477551	that leads	0.2832421
-2.041393	that might
-2.041393	that moves
-2.041393	that much
-1.477551	that room	0.2723618
-2.041393	that the
-1.477551	that was
-1.477551	that you	-0.05847867
-1.547439	the </s>
-3.028164	the apples
-2.464323	the arrows
-2.256767	the axe	0.4610459
-3.028164	the axes
-3.028164	the background
-2.256767	the bathroom	0.1447496
-2.054956	the bathtub	0.1513052
-3.028164	the bed
-3.028164	the bedroom
-2.256767	the blue	0.05040469
-3.028164	the body
-2.054956	the book	0.1445747
-3.028164	the books
-3.028164	the boom
-3.028164	the bottle
-3.028164	the bottles
-2.256767	the bottom
-2.464323	the bowls
-2.464323	the brown
-3.028164	the can
-3.028164	the candles
-2.464323	the cassette	0.4221939
-3.028164	the center
-2.256767	the chair
-3.028164	the chairs
-3.028164	the chandelier
-2.464323	the chess	0.04909107
-2.464323	the cleaver	0.6520769
-3.028164	the closed
-2.464323	the coffee
-2.464323	the coffeemaker
-2.010503	the coffin	0.3950269
-2.010503	the coin	0.2798347
-3.028164	the column
-1.810681	the computer	-0.01787225
-3.028164	the corners
-2.256767	the couch	0.1097416
-3.028164	the cover
-3.028164	the crown
-3.028164	the cube
-3.028164	the dagger
-1.50965	the desk	0.1010341
-3.028164	the disk
-2.256767	the door	0.4833223
-2.464323	the drawer	0.2402068
-2.464323	the drawers
-3.028164	the electronics
-3.028164	the emerald
-3.028164	the exact
-3.028164	the face
-2.464323	the file	0.7612214
-2.464323	the first
-1.827917	the floor	0.1925143
-3.028164	the floppy
-3.028164	the flowers
-2.464323	the footstool
-2.256767	the forest	0.1728545
-2.464323	the front
-3.028164	the furniture
-3.028164	the garbage
-2.464323	the glass	0.09143014
-2.256767	the gold	-0.08647051
-2.464323	the golden	0.05001694
-1.810681	the gun	-0.1212044
-3.028164	the guy
-3.028164	the handgun
-3.028164	the head
-3.028164	the helmet
-3.028164	the in
-1.827917	the key	0.3416355
-2.256767	the kitchen	0.3065097
-1.50965	the knife	-0.1528424
-3.028164	the ledges
-2.256767	the mask
-3.028164	the meat
-2.464323	the middle
-3.028164	the midrange
-3.028164	the mouse
-2.054956	the mummy	0.4370045
-2.256767	the next
-2.010503	the object	-0.2691984
-1.827917	the one	-0.06599784
-2.256767	the open	-0.04739373
-3.028164	the orange
-3.028164	the oranges
-3.028164	the original
-1.190892	the other	0.1266936
-3.028164	the oven
-3.028164	the paddles
-3.028164	the painting
-3.028164	the part
-1.827917	the picture	0.3568429
-3.028164	the pictures
-3.028164	the pillar
-3.028164	the plunger
-3.028164	the pots
-3.028164	the red
-2.464323	the right	-0.1013518
-1.634589	the ring	0.1878252
-1.384712	the room	0.160071
-2.256767	the same
-2.464323	the sarcophagus
-3.028164	the second
-2.464323	the sharp	-0.01714452
-2.010503	the shield	0.1730128
-2.464323	the shields
-3.028164	the side
-2.054956	the silver	-0.05569549
-2.010503	the sink	-0.03389775
-2.256767	the sitting	-0.1413717
-2.464323	the size	0.06190796
-3.028164	the smaller
-2.464323	the snake	-0.05847867
-3.028164	the soap
-3.028164	the sofa
-3.028164	the speaker
-3.028164	the sphinx
-2.464323	the stairs
-2.054956	the statue	0.1231853
-2.464323	the stereo	0.9209222
-3.028164	the stones
-3.028164	the stool
-2.464323	the strange	-0.01714452
-3.028164	the sword
-3.028164	the swords
-1.827917	the table	0.2227609
-3.028164	the tan
-3.028164	the than
-3.028164	the the
-2.464323	the thing	-0.0113252
-2.464323	the toilet
-1.685742	the top	0.09500763
-3.028164	the training
-2.464323	the trash	0.1802822
-3.028164	the treasure
-3.028164	the trophy
-3.028164	the two
-3.028164	the under
-2.464323	the v	0.6447246
-3.028164	the vase
-1.384712	the wall	0.1163677
-3.028164	the white
-2.256767	the wine
-2.256767	the wolf
-2.464323	the wooden
-3.028164	the woods
-0.9546722	them </s>
-1.518514	them and
-0.500852	them is	0.1930774
-1.518514	them look
-1.518514	them move
-1.518514	them was
-1.518514	them will
-1.041393	then </s>
-1.041393	then in
-0.4775509	then there	0.5679038
-2.113537	there </s>
-2.677379	there a
-2.113537	there also
-2.677379	there any
-1.459895	there anything	0.1292296
-1.091918	there are	-0.06797271
-0.08271006	there is	-0.5549577
-2.677379	there the
-2.113537	there was
-2.677379	there were
-0.4393327	these pillars
-0.9894343	they appear
-0.2108534	they are	0.005206585
-1.553276	they have
-0.9894343	they look
-1.439333	thing </s>
-1.439333	thing and
-1.439333	thing gray
-0.4661244	thing on	0.2718657
-1.439333	thing sitting
-0.8754909	thing with
-0.4393327	things coming
-0.4460868	think i	0.2495588
-0.4460868	think it
-1.556732	this </s>
-1.349177	this brown
-2.120574	this door
-2.120574	this golden
-1.556732	this human	0.2832421
-2.120574	this is
-2.120574	this knife
-1.102912	this one	-0.1582019
-2.120574	this purple
-2.120574	this red
-0.4507923	this room	-0.008605123
-2.120574	this silver
-2.120574	this six
-1.556732	this small	-0.1701814
-2.120574	this stairway
-1.556732	this table
-1.147366	this the	-0.1731745
-1.556732	this two
-1.154245	three bottles
-1.718086	three brown
-1.718086	three different
-1.154245	three doors	0.3610883
-1.154245	three drawers	0.6520769
-1.718086	three green
-1.718086	three of
-1.718086	three red
-0.9466892	three shields	0.3583836
-1.718086	three speakers
-1.718086	three tables
-1.718086	three there
-1.718086	three vases
-1.718086	three yellow
-1.342423	through it
-0.3247608	through the
-0.7785809	through this
-0.4393327	time </s>
-2.373831	to </s>
-1.173584	to a	-0.1513718
-2.373831	to an
-0.6557449	to be	0.05734259
-2.373831	to describe
-2.373831	to do
-2.373831	to downstairs
-1.809989	to find
-1.809989	to go
-2.373831	to have
-1.809989	to it	0.01109888
-2.373831	to know
-0.8931057	to move	-0.2399926
-1.602434	to open
-1.809989	to pick	0.1591614
-1.809989	to see
-1.809989	to stairs
-1.400623	to take	0.2414847
-2.373831	to that
-0.7040495	to the	-0.06710958
-2.373831	to this
-1.809989	to upstairs
-2.373831	to walk
-2.373831	to where
-0.4432056	toilet </s>
-1.643453	toilet a
-1.079611	toilet and
-1.643453	toilet appears
-1.643453	toilet has
-1.643453	toilet in
-1.079611	toilet paper
-1.643453	toilet plunger
-0.7403627	tomb </s>
-0.7403627	tomb or
-0.4393327	too heavy
-1.615424	took a
-0.39794	took it	-0.0549944
-0.2730013	took the
-0.5613049	top </s>
-0.9901549	top and
-1.761552	top is
-0.3679768	top of	-0.1156421
-1.761552	top part
-0.4393327	towel </s>
-0.2699956	towels </s>
-1.041393	towels a
-0.4393327	training room
-0.8754909	trash basket
-1.439333	trash bin
-0.2390856	trash can	-0.4201253
-0.7403627	treasure </s>
-0.7403627	treasure in
-0.1765209	tried to	-0.1754038
-0.1450568	trophy </s>
-1.669782	try another
-0.02632894	try to	-0.3369146
-0.4775509	trying another	-0.05832253
-0.4775509	trying to
-0.4393327	tub and
-0.4393327	turned left
-1.761982	two </s>
-1.761982	two apples
-2.325823	two axes
-2.325823	two back
-2.325823	two balconies
-1.554426	two bottles	0.3583836
-2.325823	two chair
-1.125576	two chairs	0.3681445
-1.554426	two couches	0.05713888
-2.325823	two deers
-2.325823	two dogs
-1.761982	two doors
-2.325823	two egyptian
-1.761982	two eyes
-2.325823	two i
-2.325823	two jars
-2.325823	two knives
-1.554426	two objects
-1.352615	two oranges	0.465608
-1.761982	two paddles
-2.325823	two pans
-1.108339	two pictures	0.3864267
-2.325823	two pieces
-1.554426	two pillars	0.3812497
-2.325823	two pillows
-2.325823	two ping
-2.325823	two pipes
-2.325823	two plants
-1.108339	two pots	-0.01221636
-2.325823	two rooms
-2.325823	two side
-2.325823	two small
-1.554426	two speakers	0.7263603
-1.761982	two statues
-2.325823	two stools
-1.554426	two swords	0.3583836
-2.325823	two towels
-2.325823	two two
-2.325823	two vases
-2.325823	two wooden
-0.1650944	type of
-1.138303	type some
-1.553276	under </s>
-0.3357921	under it	0.0194225
-1.553276	under its
-0.5356141	under the
-0.916454	underneath it
-0.3526122	underneath the
-0.4393327	unit </s>
-0.4210053	up </s>
-1.130334	up and
-1.901731	up into
-1.901731	up some
-1.901731	up stairs
-0.4210053	up the	-0.03831173
-1.901731	up to
-0.1249387	upstairs </s>
-1.342423	upstairs and
-1.342423	upstairs or
-0.1765209	useful in	-0.1078495
-0.06818437	v for	-0.2209052
-0.4393327	valuable </s>
-0.4393327	vanity with
-0.2825466	vase </s>
-0.8278522	vase and
-1.801061	vase like
-1.237219	vase on	-0.1113511
-1.801061	vase that
-1.029663	vase with	-0.1140089
-0.1650944	vases </s>
-1.138303	vases one
-0.4775509	vendetta </s>
-1.041393	vendetta guy
-1.041393	vendetta picture
-0.4775509	very old	0.3537366
-1.041393	very simple
-1.041393	very small
-0.4393327	viking helmet
-0.4393327	volume knob
-0.4393327	wagon wheel
-0.4393327	walk </s>
-0.4393327	walked to
-1.041393	walking </s>
-1.041393	walking around
-1.041393	walking into
-1.041393	walking upstairs
-0.1165056	wall </s>
-1.669782	wall and
-1.669782	wall mounting
-1.669782	wall next
-1.669782	wall there
-0.4393327	walls and
-0.7403627	want me
-0.7403627	want to
-0.9168836	was a
-1.480725	was behind
-1.480725	was hidden
-1.480725	was just
-1.480725	was opening
-1.480725	was put
-1.480725	was right
-1.480725	was something
-1.480725	was the
-1.480725	was under
-0.4393327	washing machine
-0.1206408	waste basket	0.2836436
-0.06818437	wastebasket </s>
-0.4393327	wastepaper basket
-0.7403627	way </s>
-0.7403627	way to
-0.4393327	weapons </s>
-0.7403627	weird </s>
-0.7403627	weird looking
-1.041393	went back
-1.041393	went through
-0.4775509	went up
-0.4393327	were </s>
-0.7883437	what </s>
-1.761552	what about
-1.19771	what am	-0.1234599
-1.761552	what appeared
-0.7883437	what appears	0.9603372
-1.19771	what i
-1.761552	what it
-1.19771	what kind	0.7612214
-1.761552	what repeat
-0.9901549	what should	1.229768
-0.4393327	wheel </s>
-1.439333	where </s>
-0.8754909	where do	0.04433982
-0.4661244	where i	-0.08380985
-1.439333	where should
-1.439333	where there
-1.439333	where where
-1.718086	which </s>
-1.718086	which book
-1.154245	which door
-1.718086	which has
-1.718086	which is
-0.1995724	which one	-0.3277685
-1.718086	which room
-0.5740313	white </s>
-1.145057	white and
-1.916454	white board
-1.352612	white chair
-1.916454	white cushion
-1.916454	white dog
-1.352612	white label	0.6447246
-1.916454	white pages
-1.916454	white pieces
-1.916454	white plastic
-1.916454	white porcelain
-1.916454	white symbol
-1.352612	white vase	0.127314
-1.916454	white wings
-0.9432456	white with	0.184487
-0.7403627	will move
-0.7403627	will not
-0.4149733	wine </s>
-1.082909	wine bottle	-0.01370974
-1.854306	wine glass
-0.6540589	wine holder	0.134054
-1.854306	wine in
-1.290464	wine rack
-1.854306	wine shelf
-1.854306	wine storage
-1.138303	wings </s>
-1.138303	wings come
-1.138303	wings in
-0.5744609	wings on
-1.135663	with </s>
-0.3340303	with a	-0.04970799
-1.757841	with an	-0.1036455
-2.529238	with black
-2.529238	with bottles
-2.529238	with candles
-2.529238	with chess
-2.529238	with circular
-2.529238	with couches
-2.529238	with doors
-2.529238	with flowers
-1.556029	with four	-0.0420934
-2.529238	with fruit
-2.529238	with gems
-2.529238	with gold
-1.556029	with green	-0.05430762
-2.529238	with it
-2.529238	with locks
-2.529238	with pictures
-2.529238	with plates
-2.529238	with red
-2.529238	with room
-1.965396	with roses
-1.965396	with several
-2.529238	with shampoo
-1.965396	with some
-2.529238	with tall
-1.965396	with teapots	0.2832421
-1.186815	with the	-0.03840689
-2.529238	with there
-2.529238	with three
-1.511576	with two	-0.03205477
-2.529238	with what
-1.965396	with wings
-2.529238	with wooden
-0.3852136	wolf </s>
-1.021619	wolf and
-1.585461	wolf is
-1.585461	wolf one
-1.585461	wolf or
-1.585461	wolf picture
-1.585461	wolf the
-0.7471168	wood </s>
-1.518514	wood and
-1.518514	wood box
-1.518514	wood looks
-1.518514	wood one
-1.518514	wood shelves
-1.518514	wood shelving
-0.7471168	wood table
-0.8301502	wooden </s>
-2.030397	wooden bar
-2.030397	wooden barrel
-2.030397	wooden book
-1.466556	wooden chair
-1.466556	wooden chairs	0.4267676
-2.030397	wooden desk
-2.030397	wooden end
-2.030397	wooden frame
-1.012735	wooden handle	-0.02664272
-2.030397	wooden panel
-1.466556	wooden stool	0.8483716
-0.6879746	wooden table	0.3698275
-2.030397	wooden top
-1.057189	wooden wine	-0.2095135
-2.030397	wooden with
-0.4393327	woods </s>
-0.7403627	would be
-0.7403627	would you
-0.4393327	writing on
-0.6536422	yeah i	0.1752754
-1.217484	yeah the
-0.4460868	yeah there	0.5674472
-0.720589	yellow </s>
-1.284431	yellow and
-1.284431	yellow candle
-1.284431	yellow cushions
-1.284431	yellow label
-1.284431	yellow plant
-0.1493812	yes </s>
-1.548776	yes a
-0.9229848	yes i	-0.2423697
-2.566437	yes in
-2.566437	yes several
-0.9809768	yes there	0.08040482
-2.002596	yes yes	-0.1377983
-1.138303	you </s>
-0.5744609	you can
-1.138303	you like
-1.138303	you want
-0.4393327	zombie and

\3-grams:
-1.642354	<s> a </s>
-2.396945	<s> a barrel
-2.396945	<s> a bed
-2.396945	<s> a book
-2.396945	<s> a boom
-2.396945	<s> a bouquet
-2.396945	<s> a bow
-2.396945	<s> a cabinet
-2.396945	<s> a can
-2.396945	<s> a candle
-2.396945	<s> a cd
-1.402913	<s> a chair
-2.396945	<s> a chessboard
-1.764516	<s> a computer
-2.220038	<s> a couch
-1.642354	<s> a desk
-2.396945	<s> a dresser
-2.220038	<s> a file
-2.396945	<s> a game
-2.396945	<s> a golden
-2.396945	<s> a green
-2.396945	<s> a hatchet
-2.396945	<s> a helmet
-2.396945	<s> a keyboard
-2.396945	<s> a lamp
-2.396945	<s> a little
-2.396945	<s> a long
-2.396945	<s> a painting
-2.396945	<s> a picture
-2.396945	<s> a ping
-2.396945	<s> a plunger
-2.396945	<s> a radio
-2.220038	<s> a ring
-2.396945	<s> a shelf
-1.935106	<s> a small
-2.396945	<s> a stereo
-2.220038	<s> a sword
-1.547119	<s> a table
-2.396945	<s> a trash
-2.396945	<s> a vase
-2.396945	<s> a weird
-2.396945	<s> a white
-2.396945	<s> a wine
-1.764516	<s> a wooden
-1.453959	and a </s>
-2.208549	and a ball
-1.746711	and a blue
-1.576121	and a book
-2.031643	and a boom
-2.031643	and a bow
-2.031643	and a chair
-2.208549	and a desk
-2.208549	and a dial
-2.208549	and a lamp
-2.208549	and a mouse
-2.208549	and a mummy
-2.208549	and a picture
-2.208549	and a ping
-2.208549	and a pot
-2.208549	and a ring
-1.746711	and a sink
-2.208549	and a small
-2.031643	and a stairway
-2.208549	and a table
-2.208549	and a toilet
-1.576121	and a wooden
-0.9891895	be a golden
-0.4451214	couch a bed
-0.6212127	desk a lamp
-1.098334	found a key
-1.797304	has a </s>
-1.797304	has a black
-1.797304	has a brown
-1.797304	has a gold
-1.797304	has a gray
-1.797304	has a lot
-1.797304	has a red
-1.797304	has a ring
-1.797304	has a wooden
-1.290219	in a </s>
-0.8283809	in a chair
-1.290219	in a mask
-1.209304	is a </s>
-2.311409	is a bath
-2.311409	is a bathroom
-1.67898	is a blue
-2.311409	is a bracelet
-2.311409	is a candle
-2.311409	is a chair
-2.311409	is a clock
-1.84957	is a coffin
-1.84957	is a coin
-1.84957	is a computer
-2.311409	is a couch
-2.311409	is a dagger
-2.311409	is a disk
-2.311409	is a filing
-2.311409	is a floppy
-2.311409	is a handgun
-1.84957	is a knife
-2.134503	is a large
-2.311409	is a lighthouse
-2.311409	is a metal
-2.311409	is a one
-2.311409	is a painting
-1.84957	is a picture
-1.556818	is a ping
-2.311409	is a red
-2.134503	is a room
-2.311409	is a statue
-2.311409	is a toilet
-2.311409	is a two
-2.311409	is a wastebasket
-2.311409	is a white
-2.311409	is a wood
-1.84957	is a wooden
-0.9096028	like a </s>
-1.542031	like a face
-1.542031	like a vase
-1.591249	of a forest
-1.414343	of a lighthouse
-1.414343	of a man
-0.5972177	of a wolf
-1.399364	on a chair
-1.399364	on a glass
-0.4053321	on a table
-1.399364	on a wooden
-0.9671855	or a cd
-1.051433	see a </s>
-2.40177	see a backgammon
-1.769341	see a bed
-2.40177	see a black
-1.939932	see a blue
-2.40177	see a brown
-2.40177	see a can
-1.939932	see a coin
-2.224864	see a computer
-2.40177	see a cube
-1.473883	see a desk
-1.769341	see a door
-2.40177	see a filing
-2.224864	see a golden
-2.40177	see a green
-2.224864	see a helmet
-2.224864	see a key
-2.40177	see a mummy
-2.40177	see a painting
-2.224864	see a picture
-1.769341	see a ping
-2.224864	see a pot
-2.40177	see a room
-1.939932	see a sink
-1.551944	see a small
-2.40177	see a statue
-2.40177	see a stereo
-2.224864	see a stove
-2.224864	see a table
-1.939932	see a toilet
-2.40177	see a trash
-2.224864	see a two
-2.40177	see a vase
-2.224864	see a wine
-2.224864	see a wooden
-0.527351	to a different
-0.9720795	with a </s>
-1.72306	with a clock
-1.899966	with a computer
-1.899966	with a crown
-1.899966	with a gold
-1.899966	with a lot
-1.72306	with a plant
-1.438128	with a red
-1.899966	with a wooden
-0.4451214	<s> about the
-0.6212127	is all in
-0.2106328	i also see
-0.8122835	i am looking
-0.4451214	what am i
-0.5530555	<s> an axe
-1.185484	<s> an orange
-0.3812229	and an axe
-0.8122835	is an oven
-0.8430614	see an axe
-0.6212127	with an open
-1.162345	<s> and </s>
-0.3802426	<s> and a
-2.350917	<s> and another
-2.350917	<s> and has
-1.05827	<s> and i
-1.501092	<s> and it
-1.596327	<s> and one
-1.501092	<s> and some
-2.174011	<s> and the
-2.174011	<s> and then
-1.299496	<s> and there
-1.596327	<s> and two
-0.6212127	apples and oranges
-0.9222427	black and silver
-0.9222427	black and white
-0.6212127	book and a
-0.4451214	bow and arrow
-0.5692455	chair and a
-0.6212127	clock and a
-0.4451214	color and one
-0.6212127	desk and a
-0.4443068	handle and a
-0.8430614	it and where
-0.6212127	keyboard and a
-0.4443068	long and one
-0.6212127	open and one
-0.4451214	ottoman and a
-0.6212127	pots and pans
-0.4451214	swords and an
-0.9222427	table and there
-1.144091	see another door
-1.144091	see another one
-0.4451214	trying another room
-0.9222427	there anything else
-0.9222427	there anything useful
-0.4451214	<s> appears to
-0.1393638	it appears to
-0.2843129	what appears to
-0.4451214	<s> are the
-1.290219	there are </s>
-1.113314	there are three
-0.6577908	there are two
-1.047181	they are the
-0.6661555	looking around </s>
-0.4451214	and arrow </s>
-0.2843129	<s> arrows </s>
-0.4451214	shields arrows </s>
-0.6212127	looking at a
-0.2066134	an axe </s>
-0.6212127	the axe </s>
-0.4451214	<s> axes </s>
-0.6212127	going back to
-0.6212127	<s> backgammon </s>
-0.6212127	a backgammon board
-0.3812229	pong ball </s>
-0.7461514	a bar </s>
-0.7461514	a barrel </s>
-0.7461514	a barrel a
-0.2106328	waste basket </s>
-0.5692455	a bath </s>
-0.7461514	a bathroom </s>
-0.4443068	the bathroom </s>
-0.7461514	a bathtub </s>
-0.7461514	the bathtub </s>
-0.5730193	to be a
-1.245939	to be an
-1.245939	to be made
-0.2575973	a bed </s>
-0.5692455	<s> behind the
-0.4451214	knife behind the
-0.4451214	one behind the
-0.8430614	ring behind it
-0.8430614	ring behind the
-0.4451214	garbage bin </s>
-0.4443068	<s> black and
-0.9891895	a black </s>
-0.5692455	and black </s>
-0.8430614	is black and
-0.4451214	silver blade </s>
-1.290219	a blue </s>
-1.113314	a blue chair
-0.4403938	a blue couch
-1.290219	a blue loveseat
-0.6212127	and blue </s>
-0.8122835	is blue </s>
-0.9891895	is blue and
-0.9891895	is blue with
-0.6212127	the blue couch
-0.4443068	backgammon board </s>
-0.6661555	<s> book </s>
-0.8430614	<s> book cases
-0.3437435	a book </s>
-1.098334	a book on
-0.4451214	closed book </s>
-0.2106328	one book is
-0.8430614	open book and
-0.8430614	open book or
-0.7461514	the book </s>
-0.4451214	red bookmark </s>
-0.1973557	a boom box
-0.4443068	a bottle of
-0.6212127	wine bottle and
-0.6212127	two bottles of
-0.4451214	a bouquet of
-0.4147528	a bow </s>
-1.047181	a bow and
-0.09267002	boom box </s>
-0.5692455	a bracelet </s>
-0.4451214	another bracelet </s>
-0.4443068	gold bracelet </s>
-0.7461514	a bridge </s>
-0.8430614	<s> brown with
-0.4604042	is brown and
-0.3812229	peanut butter </s>
-0.4451214	<s> cabinet </s>
-0.1973557	file cabinet </s>
-0.2575973	filing cabinet </s>
-1.185484	filing cabinet with
-0.07250845	<s> can i
-0.8702755	a can </s>
-1.047181	a can and
-0.8702755	a can of
-1.098334	i can move
-1.098334	i can see
-0.4451214	ok can i
-0.1393638	trash can </s>
-0.7453368	a candle </s>
-0.4443068	and candles </s>
-0.5692455	i cannot move
-0.4451214	the cassette player
-0.7453368	a cd </s>
-0.9222427	a cd player
-0.7461514	<s> chair that
-0.1438616	a chair </s>
-1.466311	a chair and
-0.6212127	blue chair </s>
-0.4451214	tan chair </s>
-0.2898141	four chairs </s>
-0.6212127	some chairs </s>
-0.3567609	two chairs </s>
-0.4451214	wooden chairs </s>
-0.6212127	a chess set
-0.4451214	the chess set
-0.3812229	a chessboard </s>
-0.4451214	a cleaver </s>
-0.6212127	meat cleaver </s>
-0.4451214	the cleaver </s>
-0.5853429	a clock </s>
-1.047181	a clock and
-1.047181	a clock on
-0.3567609	is closed </s>
-0.9891895	is closed and
-0.4443068	<s> coffee maker
-0.5692455	a coffee maker
-0.6212127	<s> coffin </s>
-0.2485083	a coffin </s>
-1.098334	a coffin that
-0.3812229	the coffin </s>
-0.5116628	a coin </s>
-1.144091	a coin under
-0.4451214	silver coin </s>
-0.6661555	the coin </s>
-0.3541796	a computer </s>
-1.348211	a computer desk
-0.9222427	the computer room
-1.047181	a couch </s>
-1.047181	a couch a
-1.047181	a couch and
-0.5116628	blue couch </s>
-1.144091	blue couch and
-0.6212127	the couch </s>
-0.6212127	two couches </s>
-0.4451214	a cube </s>
-0.4451214	gold cup </s>
-0.6661555	a dagger </s>
-0.2979423	a desk </s>
-1.309608	a desk a
-1.309608	a desk with
-0.6212127	computer desk </s>
-0.2292409	the desk </s>
-0.5692455	i did </s>
-0.2843129	a different room
-0.4604042	a disk </s>
-0.6661555	floppy disk </s>
-0.5692455	<s> do i
-0.4451214	how do i
-0.8702755	i do not
-1.047181	i do see
-1.047181	i do to
-0.4451214	where do i
-0.4451214	it does not
-0.4451214	other does not
-0.1676523	<s> done </s>
-0.1340627	a door </s>
-0.6212127	brown door </s>
-0.6212127	orange door </s>
-0.1704471	red door </s>
-0.6212127	the door </s>
-0.4451214	three doors </s>
-0.2843129	sitting down </s>
-0.4451214	go downstairs </s>
-0.4451214	a drawer </s>
-0.4451214	the drawer </s>
-0.4451214	three drawers </s>
-0.4451214	a dresser with
-0.6212127	an egyptian </s>
-0.4451214	for electronics </s>
-0.5692455	a face </s>
-0.2106328	a file cabinet
-0.4451214	the file cabinet
-0.1192946	a filing cabinet
-0.1393638	the floor </s>
-0.2843129	a floppy disk
-0.3812229	of flowers </s>
-0.4443068	some flowers </s>
-0.4451214	a footstool </s>
-0.8122835	looking for </s>
-0.9891895	looking for electronics
-0.2843129	v for vendetta
-0.4443068	the forest </s>
-0.1043021	i found a
-0.3812229	<s> four chairs
-0.5692455	with four plates
-0.7461514	of fruit and
-0.4451214	green gems </s>
-0.2843129	a glass table
-0.4451214	the glass table
-1.309608	i go </s>
-1.486514	i go back
-1.486514	i go downstairs
-1.024676	i go through
-0.8540855	i go to
-1.309608	i go upstairs
-0.6212127	<s> going back
-0.7453368	stairs going down
-0.9222427	stairs going up
-1.098334	a gold cup
-1.098334	a gold mask
-0.4443068	and gold </s>
-0.8430614	is gold the
-0.6212127	the gold bracelet
-0.8702755	a golden ring
-0.4451214	the golden ring
-0.6212127	i got the
-0.5692455	is green and
-0.7461514	with green gems
-0.5692455	a gun in
-0.1676523	the gun </s>
-0.4451214	<s> handgun </s>
-0.3812229	wooden handle </s>
-0.9891895	<s> has a
-0.9891895	<s> has two
-0.8702755	and has </s>
-0.8702755	and has a
-1.047181	and has two
-0.2876578	it has a
-1.712293	it has three
-0.9577028	it has two
-0.2485083	one has a
-0.4451214	other has a
-0.3812229	room has a
-0.8702755	that has </s>
-1.047181	that has a
-0.2843129	a hatchet </s>
-1.223273	i have it
-0.4686823	i have the
-0.2898141	a helmet </s>
-0.4443068	<s> hidden </s>
-0.8122835	wine holder </s>
-0.7461514	<s> how do
-0.4451214	this human looking
-2.429584	<s> i also
-1.851899	<s> i am
-1.851899	<s> i can
-2.429584	<s> i cannot
-2.144651	<s> i did
-2.606489	<s> i do
-1.678603	<s> i found
-2.606489	<s> i got
-1.504385	<s> i have
-1.974061	<s> i just
-0.1400164	<s> i see
-2.429584	<s> i think
-1.459003	<s> i took
-2.606489	<s> i was
-2.606489	<s> i went
-0.4451214	a i see
-0.4451214	am i looking
-0.1554827	and i see
-0.7512289	can i go
-1.505819	can i move
-1.043981	can i open
-0.5117875	can i pick
-1.505819	can i take
-0.8702755	do i go
-0.4451214	no i do
-0.6212127	object i see
-0.8430614	ok i took
-0.4451214	see i see
-1.674756	should i do
-0.7041749	should i go
-1.389823	should i look
-1.674756	should i move
-1.674756	should i pick
-1.851662	should i should
-0.8576298	should i take
-0.6630898	should i try
-0.6212127	think i see
-0.7461514	where i started
-0.4451214	yeah i see
-0.1221075	yes i see
-1.047181	<s> in a
-1.047181	<s> in it
-1.047181	<s> in this
-0.4451214	all in this
-0.4451214	disk in the
-0.4451214	holes in it
-0.4451214	look in the
-0.4451214	pillow in the
-0.4451214	sitting in a
-0.4451214	something in it
-0.4451214	useful in this
-0.7319237	<s> is a
-1.309608	<s> is it
-0.5586272	<s> is there
-1.309608	<s> is this
-0.9891895	book is closed
-0.527351	book is open
-0.5302709	it is a
-1.524303	it is black
-1.524303	it is silver
-1.062464	it is white
-0.8920106	one is a
-1.766526	one is blue
-1.943432	one is brown
-1.481593	one is closed
-1.481593	one is gold
-1.943432	one is green
-1.766526	one is of
-1.481593	one is open
-1.943432	one is orange
-1.943432	one is short
-1.481593	one is silver
-1.943432	one is wood
-0.8430614	other is a
-0.4451214	part is silver
-0.4451214	sink is blue
-0.9222427	table is wooden
-1.144091	that is </s>
-0.9671855	that is all
-1.144091	that is purple
-0.8430614	them is a
-1.837589	there is </s>
-0.09813229	there is a
-2.299428	there is also
-1.544837	there is an
-2.299428	there is another
-2.299428	there is fruit
-2.299428	there is one
-2.122522	there is something
-1.812284	<s> it </s>
-1.139364	<s> it appears
-1.98919	<s> it does
-0.587936	<s> it has
-0.6388529	<s> it is
-0.7285405	<s> it looks
-1.98919	<s> it was
-0.264003	and it has
-1.258035	and it looks
-0.2843129	behind it </s>
-0.4451214	have it </s>
-0.1559299	in it </s>
-0.4443068	move it </s>
-0.2575973	of it </s>
-0.1818541	on it </s>
-1.606489	on it and
-0.4451214	over it </s>
-0.1676523	pick it up
-0.2106328	take it </s>
-0.4451214	to it </s>
-0.4604042	took it </s>
-0.9222427	took it and
-0.4604042	under it </s>
-0.9222427	i just came
-0.2898141	a key </s>
-0.1393638	the key </s>
-0.8430614	a keyboard </s>
-0.8430614	a keyboard and
-0.4451214	<s> kind of
-0.4451214	looks kind of
-0.4451214	some kind of
-0.4451214	what kind of
-0.4443068	the kitchen </s>
-0.6364954	a knife </s>
-1.098334	a knife behind
-0.1211678	the knife </s>
-0.4451214	white label </s>
-0.1973557	a lamp </s>
-0.4451214	that leads to
-0.4451214	a letter under
-0.4147528	a lighthouse </s>
-1.047181	a lighthouse and
-0.6212127	<s> like a
-1.382159	looks like </s>
-0.3329608	looks like a
-1.559065	looks like it
-0.2843129	of like a
-0.4451214	of liquor </s>
-0.7461514	a long blade
-0.4443068	is long and
-0.8430614	i look in
-0.8702755	<s> looking around
-0.5853429	<s> looking for
-0.6212127	am looking around
-0.4451214	i looking for
-0.2345991	<s> looks like
-1.466311	it looks </s>
-1.466311	it looks kind
